svm_type c_svc
kernel_type rbf
gamma 0.0078125
nr_class 6
total_sv 35
rho 1.44355 -0.0429481 2.81992 -0.0947657 0.801108 -0.100149 -0.1981 -0.467685 -1.35552 -1.13105 0.201987 1.25665 -4.2814 0.482311 0.693118
label 0 1 2 3 4 5
probA -0.875533 -1.87667 1.84118 1.40996 -2.34633 -1.15286 -2.21186 -0.994228 0.401996 -0.780277 -1.81619 -0.0410844 1.07948 -2.24445 -2.50745
probB 0.383253 0.107843 -1.23501 -0.67859 0.426148 -0.0326303 -0.332342 -0.0584169 0.237555 -0.0192445 0.0292717 0.0171219 0.592397 0.252493 0.569249
nr_sv 6 6 5 6 6 6
SV
0 0 117.8942766947193 35.6442702201826 0 1:-0.967249 2:-0.737001 3:-0.601474 4:-0.734507 5:0.196652 6:0.508722 7:0.189529 8:0.0975182 9:0.511561 10:0.455444 11:0.185596 12:0.399731 13:0.283835 14:-0.470806 15:0.0182049 16:0.340329 17:-0.111213 18:0.0710581 19:0.0760518 20:-0.0368443 21:-0.0118792 22:-0.437791 23:-0.578955 24:-0.432905 25:-0.457594 26:-0.18223 27:0.397964 28:-0.414676 29:0.225293 30:0.137451 31:-0.341798 32:-0.0835364 33:0.393151 34:0.0356063 35:-0.0109119 36:-0.0579797 37:-0.477351 38:-0.0803634 39:0.0838575 
13.1859738982961 9.489158077613059 69.02666516851498 112.0192503634552 0 1:-0.979122 2:-0.837899 3:-0.606805 4:-0.706056 5:0.0490525 6:0.680798 7:0.647162 8:0.446508 9:-0.0714823 10:0.304871 11:0.11222 12:0.11117 13:0.32212 14:-0.465404 15:0.163004 16:0.359919 17:-0.231723 18:0.148759 19:-0.18033 20:-0.167265 21:-0.300796 22:-0.325605 23:-0.148286 24:-0.0815725 25:-0.246231 26:0.231933 27:0.419742 28:-0.158879 29:0.0766258 30:0.136438 31:0.0329937 32:-0.63298 33:-0.269261 34:-0.338628 35:0.890277 36:0.0567163 37:-0.306695 38:0.2196 39:-0.156768 
3.186503158156021 30.9162286933859 67.3223495829577 128 0 1:-0.953045 2:-0.717307 3:-0.383575 4:-0.554453 5:0.424854 6:0.789053 7:0.443363 8:0.366998 9:0.200264 10:0.964886 11:0.517717 12:0.206311 13:0.135932 14:-0.450169 15:0.0799789 16:0.460876 17:-0.475339 18:-0.0887825 19:0.0664415 20:-0.190219 21:0.295122 22:0.173853 23:-0.434821 24:-0.311956 25:-0.40455 26:-0.0746083 27:0.37536 28:-0.527649 29:-0.141008 30:-0.0684517 31:-0.686431 32:-0.620979 33:0.120266 34:-0.354233 35:0.373646 36:-0.360387 37:-0.911043 38:-0.00957021 39:0.0210604 
70.79943221477529 32.58794856581343 128 128 16.08985522383803 1:-0.95396 2:-0.775615 3:-0.585695 4:-0.717839 5:0.103317 6:0.451712 7:0.249975 8:0.0491232 9:0.100037 10:0.394833 11:-0.114008 12:0.0616185 13:0.116668 14:-0.451589 15:0.124964 16:0.578675 17:0.0474587 18:0.136194 19:-0.023626 20:-0.14972 21:-0.239799 22:-0.421283 23:-0.276714 24:-0.447608 25:-0.48597 26:-0.407392 27:0.357507 28:-0.217444 29:0.193219 30:0.110411 31:0.0647102 32:0.0856176 33:0.29991 34:-0.13631 35:0.472746 36:0.24216 37:0.118282 38:0.0435385 39:0.105869 
0 14.09382518295885 58.61190204153418 101.2116817191091 0 1:-0.944525 2:-0.832157 3:-0.671042 4:-0.704105 5:-0.0553289 6:0.592033 7:0.316284 8:0.601491 9:0.505328 10:0.374669 11:0.0480468 12:0.280937 13:0.22155 14:-0.470544 15:-0.0676599 16:0.444686 17:-0.257952 18:-0.0572435 19:0.0627646 20:0.285872 21:0.0192037 22:-1 23:-0.791468 24:-0.920431 25:-0.661605 26:-0.495843 27:0.329107 28:-0.0739557 29:0.349037 30:0.140384 31:0.348266 32:-0.125768 33:0.385771 34:-0.86525 35:-0.214536 36:0.373587 37:0.178932 38:-0.0016159 39:0.149798 
5.191842805431692 3.132697056775407 21.9531420797031 67.52992495025445 3.330472884060725 1:-0.987922 2:-0.71655 3:-0.588281 4:-0.705922 5:0.0319303 6:0.542296 7:0.115101 8:-0.491088 9:0.079448 10:0.522481 11:0.385139 12:0.14871 13:0.387089 14:-0.405621 15:0.0402742 16:0.302248 17:0.281763 18:-0.031033 19:0.070508 20:-0.0679286 21:0.0321522 22:0.229382 23:-0.0378555 24:-0.380627 25:-0.227181 26:0.18156 27:0.466403 28:-0.374344 29:0.162916 30:0.0248112 31:0.0129248 32:-0.234749 33:0.533884 34:1 35:0.684257 36:-0.0171308 37:-0.955673 38:-0.0736351 39:-0.382559 
-1.417370388211951 8.043663314842144 0.3602386213965424 3.525788397354158 70.15746695616171 1:0.391782 2:0.586998 3:0.0280156 4:1 5:-0.673176 6:-0.807971 7:-0.183938 8:-0.453346 9:-0.476573 10:-0.4749 11:0.0788419 12:0.36438 13:-0.701508 14:-1 15:0.115553 16:0.929332 17:-0.878063 18:1 19:0.330242 20:-0.139217 21:0.819245 22:-0.78532 23:-1 24:-0.0252485 25:-0.580537 26:-0.68324 27:0.51348 28:0.129073 29:-0.388465 30:-1 31:0.9893 32:0.224288 33:-0.135823 34:0.115237 35:0.385431 36:0.086647 37:0.197454 38:0.179391 39:0.157422 
-43.09375349159959 34.55180440253604 40.45000823245425 68.86912187087756 0 1:-0.969175 2:-0.76656 3:-0.505596 4:-0.682335 5:0.101806 6:0.206308 7:0.0831409 8:0.145461 9:-0.0898681 10:0.500531 11:0.139301 12:0.149924 13:0.248232 14:-0.4183 15:0.451417 16:0.61928 17:0.171892 18:-0.0394574 19:0.0494758 20:0.0944628 21:0.175901 22:-0.317814 23:-0.087785 24:-0.320314 25:-0.59306 26:-0.305679 27:0.662601 28:0.364564 29:0.473728 30:0.476908 31:0.355575 32:0.0511724 33:0.210361 34:-0.540737 35:-0.175177 36:-0.354988 37:-0.913874 38:-0.159228 39:-0.154191 
-0.9218751781286821 8.510783872953015 2.389708182775814 0 75.54904020235143 1:-0.361025 2:0.574004 3:0.654422 4:0.122615 5:0.330542 6:-0.0319378 7:-0.725003 8:-1 9:-0.503306 10:-0.573086 11:-1 12:-0.651483 13:0.236954 14:0.361669 15:1 16:0.0585727 17:0.499897 18:-0.465895 19:-0.629295 20:-0.514061 21:-0.622745 22:0.411359 23:-0.279414 24:-0.40063 25:-0.482565 26:0.152582 27:1 28:-0.944387 29:-1 30:-0.16946 31:-0.941491 32:-0.821284 33:1 34:0.579046 35:0.504795 36:1 37:1 38:0.783656 39:-0.286513 
-43.73938557312748 5.443907605159653 24.77948477342776 36.91155041381334 61.18358721889951 1:-0.900909 2:-0.586471 3:-0.285661 4:-0.469094 5:0.280807 6:0.346115 7:0.227651 8:-0.111774 9:-0.488928 10:0.0493132 11:-0.500357 12:-0.26642 13:0.0925787 14:-0.311064 15:0.802825 16:1 17:0.427245 18:0.102653 19:-0.0995211 20:-0.558021 21:-0.531728 22:-0.538545 23:-0.666905 24:-0.781675 25:-0.502524 26:-0.129798 27:0.554694 28:0.00782021 29:0.169296 30:0.0514239 31:-0.220505 32:-0.392131 33:-0.033451 34:-0.181939 35:1 36:0.211936 37:0.143814 38:0.164848 39:0.157442 
-0 0 0 0 85.52286024382566 1:0.940579 2:0.795106 3:-0.959919 4:0.810703 5:-1 6:-0.95901 7:-0.434417 8:-0.916787 9:-0.0065244 10:0.0151926 11:0.388973 12:0.590287 13:-0.0101814 14:-0.593436 15:-0.199592 16:0.592915 17:0.547121 18:-0.0716143 19:0.112697 20:0.161572 21:0.102656 22:-0.456026 23:-0.409455 24:-0.448023 25:-0.248937 26:-0.149214 27:-0.205444 28:-0.254651 29:0.808841 30:-0.0921433 31:0.437542 32:0.0112086 33:0.26979 34:-0.00696774 35:0.0952507 36:0.0417517 37:-0.667917 38:-0.123527 39:-0.297704 
-3.191367445591425 1.974842776277098 2.619213229872874 0 80.06534766143689 1:0.688982 2:0.973749 3:-0.409062 4:0.371389 5:-0.488264 6:-0.888048 7:-0.72069 8:-0.830242 9:-0.181712 10:0.179197 11:-0.21824 12:0.095742 13:-0.22265 14:0.313698 15:0.291333 16:-0.521791 17:0.290892 18:-0.691291 19:-0.423652 20:0.104985 21:-0.0358313 22:0.0632948 23:0.0474963 24:0.704479 25:0.0242097 26:-1 27:-0.564154 28:-0.885763 29:0.451755 30:0.18841 31:0.254049 32:0.637571 33:0.358603 34:-0.420115 35:0.338926 36:-0.450422 37:-0.38655 38:-0.180472 39:0.313594 
-0 -9.015601376315937 0 0 12.22926468644957 1:-0.538305 2:0.462644 3:1 4:0.113456 5:0.440022 6:0.196553 7:-0.224819 8:-0.589121 9:-0.833996 10:-0.564564 11:-0.415904 12:-0.47067 13:-0.401751 14:-0.838681 15:-0.756682 16:0.887657 17:0.222247 18:0.594356 19:1 20:0.555782 21:0.0818791 22:0.335046 23:0.288732 24:-1 25:-0.812407 26:-0.612464 27:0.699618 28:-0.824437 29:-0.992833 30:-0.096704 31:0.676813 32:-0.17291 33:0.475635 34:0.525702 35:0.425494 36:0.233037 37:0.113236 38:0.0021852 39:-0.457476 
-63.57076255266499 -29.79992679543674 93.42001187080865 72.26103429099683 13.74595433180534 1:-0.920238 2:-0.55714 3:-0.0844308 4:-0.41654 5:0.516412 6:0.785632 7:0.55618 8:0.499993 9:0.465506 10:0.411586 11:0.205463 12:0.231968 13:0.264731 14:-0.477781 15:-0.0976962 16:0.213834 17:-0.303067 18:-0.170133 19:-0.0416799 20:-0.126859 21:0.00544222 22:0.0345658 23:-0.217151 24:-0.0931872 25:-0.383443 26:-0.247731 27:0.433546 28:0.0182002 29:0.377359 30:0.368317 31:0.359279 32:-0.00860361 33:0.221895 34:-0.228828 35:0.262999 36:0.329792 37:-0.0545336 38:0.00880593 39:0.0190535 
-5.657236517975921 -13.24819109584579 8.306467423228096 5.334997142399185 111.6596923538715 1:-0.0453615 2:0.818581 3:-0.0648706 4:-0.018416 5:0.822659 6:-0.379938 7:-0.699895 8:0.14399 9:-0.972726 10:-0.936071 11:0.233647 12:0.0113463 13:-0.960546 14:-0.676895 15:0.00546771 16:0.642282 17:-0.51659 18:0.0984675 19:0.175004 20:-0.121531 21:-0.432148 22:-0.486878 23:-0.28433 24:-0.732781 25:-0.712158 26:-0.0120446 27:0.294494 28:-0.630831 29:0.547182 30:0.792512 31:-0.804247 32:0.0618576 33:0.666327 34:-0.506846 35:0.626113 36:0.312102 37:-0.422742 38:0.0258382 39:0.213531 
-20.99185850590574 -0 68.88300121427551 11.80299746684856 0 1:-0.819006 2:-0.0934379 3:0.582242 4:0.021797 5:1 6:1 7:0.556317 8:0.34984 9:0.0297749 10:0.703127 11:0.232853 12:0.193959 13:0.303549 14:-0.530572 15:-0.03279 16:0.261366 17:-0.456038 18:0.158942 19:0.0866619 20:-0.120394 21:-0.135191 22:-0.262478 23:-0.48534 24:-0.660087 25:-0.564233 26:-0.0942136 27:0.279121 28:-0.854772 29:-0.198724 30:-0.293929 31:-0.51923 32:-0.414535 33:0.429966 34:-0.170985 35:0.437608 36:-0.171898 37:-0.484753 38:-0.200411 39:-0.280552 
-0 -6.461282704169468 0 3.600227761696392 1.662643468252962 1:-0.813192 2:-0.415041 3:0.278891 4:-0.0512057 5:0.562975 6:0.852615 7:1 8:0.641387 9:0.57458 10:1 11:0.271966 12:0.0883017 13:-0.0115142 14:-0.501856 15:0.409733 16:0.53564 17:-0.289993 18:-0.0248459 19:0.210346 20:0.0651439 21:0.555174 22:0.308628 23:0.750115 24:1 25:0.495508 26:1 27:0.695577 28:1 29:0.918203 30:0.600028 31:0.979067 32:-0.316605 33:-1 34:-0.950765 35:-1 36:-1 37:-0.942571 38:-0.12334 39:-0.261289 
-62.34693220988012 -6.415845097053938 -120.2394553472908 60.49220078069196 12.82196982651844 1:-0.918509 2:-0.402267 3:0.163471 4:-0.173433 5:0.918081 6:0.898731 7:0.534963 8:0.451509 9:0.192099 10:0.499183 11:0.413789 12:0.0773094 13:0.0554234 14:-0.449726 15:0.118763 16:0.476712 17:-0.0268432 18:0.0348443 19:-0.0354266 20:-0.173955 21:-0.137756 22:-0.461019 23:-0.286938 24:-0.48322 25:-0.485333 26:-0.204821 27:0.360563 28:-0.372818 29:0.0584241 30:0.0335325 31:-0.18079 32:-0.225827 33:0.217503 34:0.0354577 35:0.732892 36:0.154421 37:-0.135171 38:0.144349 39:0.25708 
-128 -34.0674740908829 -41.72101858631733 128 0.7351361558546801 1:-0.941393 2:-0.779807 3:-0.683275 4:-0.792499 5:0.0276085 6:0.4912 7:0.278826 8:0.170626 9:0.17689 10:0.633579 11:0.150271 12:0.206711 13:0.317917 14:-0.456567 15:0.119422 16:0.438446 17:-0.0281714 18:0.0801692 19:0.0338176 20:-0.09884 21:-0.0744732 22:-0.273337 23:-0.461805 24:-0.283935 25:-0.353352 26:-0.310235 27:0.368335 28:-0.414249 29:0.181223 30:0.131927 31:0.033299 32:-0.173786 33:0.30117 34:0.0119313 35:0.453671 36:-0.0711211 37:-0.0753423 38:-0.0423325 39:-0.134127 
-128 -0.9943747339334862 -0 38.62077078042481 0 1:-0.926831 2:-0.846341 3:-0.720998 4:-0.83557 5:-0.0189537 6:0.549871 7:0.380117 8:0.434152 9:0.483398 10:0.464526 11:0.0827416 12:0.0605844 13:-0.00579203 14:-0.493168 15:-0.00913148 16:0.364325 17:-0.313152 18:0.161671 19:0.022502 20:-0.0152285 21:-0.416554 22:-0.89074 23:-0.251754 24:-0.645185 25:-0.788999 26:-0.355778 27:0.286182 28:-0.277695 29:0.0993248 30:0.0824388 31:-0.16388 32:-0.45434 33:0.118361 34:-0.287439 35:0.0107635 36:0.154311 37:-0.0610775 38:0.283666 39:0.336933 
-75.34103884282057 -10.1003145275671 -0 78.71580887009833 3.022708662372187 1:-0.955246 2:-0.778389 3:-0.512743 4:-0.623424 5:0.198916 6:0.274969 7:-0.0550039 8:0.135684 9:0.361783 10:0.891752 11:0.680044 12:0.251917 13:0.172368 14:-0.526874 15:0.239158 16:0.499593 17:0.0836664 18:-0.011166 19:0.1914 20:-0.0199036 21:0.0724553 22:-0.139494 23:0.0510596 24:-0.806362 25:-0.105975 26:0.463575 27:0.432256 28:-0.392125 29:-0.19744 30:-0.667705 31:-0.721684 32:0.257032 33:0.824906 34:0.0527079 35:0.121948 36:-0.322145 37:-1 38:-0.24705 39:0.0712513 
-50.84794346781469 -14.76785997196012 -0 83.56951828629934 2.579776276693948 1:-1 2:-0.882643 3:-0.95027 4:-1 5:0.0115701 6:0.333567 7:0.252958 8:0.0661014 9:-0.0956282 10:0.413346 11:-0.123617 12:-0.805303 13:0.0986301 14:-0.375164 15:-0.204486 16:0.348688 17:-0.272808 18:-0.111001 19:-0.216364 20:-0.221521 21:0.0414882 22:-0.594634 23:-0.236479 24:0.490532 25:-0.278416 26:-0.283543 27:0.526323 28:0.16476 29:0.711402 30:1 31:0.305093 32:-0.107618 33:0.00622536 34:-0.176532 35:0.977521 36:0.463999 37:0.421697 38:0.975362 39:0.194122 
-18.27242104691394 -4.25278461852969 -8.64900657470414 28.5671220361641 0 1:-0.920791 2:-0.430468 3:0.229491 4:-0.13865 5:0.909941 6:0.911431 7:0.576624 8:1 9:1 10:0.830457 11:1 12:0.657553 13:0.663586 14:-0.440806 15:0.514464 16:0.957653 17:0.840421 18:0.727901 19:0.470258 20:0.51623 21:0.0385167 22:-0.638429 23:-0.68535 24:-0.605826 25:-0.156199 26:-0.316378 27:0.421371 28:-0.468505 29:-0.195028 30:-0.339936 31:-0.692279 32:-0.295008 33:0.411374 34:-1 35:-0.270276 36:0.0420272 37:-0.70107 38:-0.162023 39:-0.615031 
-128 -28.00927184116133 -2.121465056707438 -128 11.69326849691103 1:-0.941833 2:-0.827585 3:-0.627141 4:-0.717583 5:0.241156 6:0.538258 7:0.20996 8:-0.0651557 9:-0.0523914 10:0.549599 11:0.34592 12:0.1322 13:0.192347 14:-0.437786 15:0.251516 16:0.549353 17:0.027095 18:0.0588345 19:0.108308 20:0.00479494 21:-0.153308 22:-0.434033 23:-0.160194 24:-0.420315 25:-0.770035 26:-0.548649 27:0.370196 28:-0.273474 29:0.166066 30:0.295744 31:-0.148872 32:-0.190144 33:0.365133 34:0.318058 35:0.675971 36:0.197132 37:-0.290491 38:0.198021 39:-0.0879175 
-120.6799525538384 -39.81935515986842 -22.1229356282288 -43.67998184670365 0 1:-0.942549 2:-0.798237 3:-0.578461 4:-0.645477 5:0.104614 6:0.618348 7:0.235744 8:0.488488 9:0.510303 10:0.837458 11:0.369134 12:0.427012 13:-0.0476829 14:-0.454195 15:0.258723 16:0.593837 17:-0.111398 18:0.101341 19:-0.0387568 20:-0.268582 21:-0.339448 22:-0.127566 23:-0.543545 24:-0.681151 25:-0.427161 26:-0.355301 27:0.501051 28:0.163347 29:0.379413 30:0.15941 31:0.274508 32:-0.34758 33:0.172206 34:-0.655519 35:-0.128633 36:-0.143274 37:-0.48269 38:-0.102085 39:0.290529 
-87.31103373421888 -34.49717918787687 -20.24791937320146 -101.2775022860619 5.557228505067011 1:-0.936292 2:-0.894419 3:-0.657316 4:-0.623846 5:0.0915766 6:0.409779 7:0.184787 8:0.153096 9:-0.208413 10:0.325549 11:0.0643314 12:-0.0576475 13:0.0221276 14:-0.460218 15:0.170628 16:0.710896 17:0.257212 18:0.0216186 19:0.0940997 20:0.0600503 21:0.329875 22:-0.244164 23:-0.419072 24:0.00651303 25:-0.109067 26:0.0492837 27:0.374558 28:0.106731 29:0.303946 30:-0.0741156 31:0.442768 32:0.38552 33:0.558329 34:-0.268181 35:0.723011 36:0.252415 37:0.0220498 38:0.232943 39:0.195229 
-67.55483872421064 -1.319313882742745 -10.89919085793694 -26.59159347487603 0 1:-0.930215 2:-0.659108 3:-0.453032 4:-0.569792 5:0.232577 6:0.629134 7:0.531028 8:0.619112 9:0.233051 10:0.95451 11:0.424229 12:0.486927 13:1 14:-0.440913 15:0.074046 16:0.401049 17:0.238302 18:-0.291845 19:-0.0137865 20:-0.303274 21:0.705888 22:-0.113036 23:-0.135418 24:-0.362692 25:-0.0149749 26:-0.576142 27:0.329011 28:-0.816218 29:-0.0849654 30:-0.290484 31:-0.181119 32:-0.137012 33:-0.00950005 34:-0.606406 35:0.500483 36:-0.377765 37:-0.388052 38:-0.0533984 39:-1 
-128 -0 -25.97647759670178 -118.4163431460369 0.4545814838951135 1:-0.933245 2:-0.816704 3:-0.620243 4:-0.627391 5:0.444937 6:0.686271 7:0.541777 8:0.477106 9:0.278623 10:0.575626 11:0.25758 12:0.159715 13:0.261528 14:-0.43945 15:-0.083474 16:0.326535 17:-0.184268 18:-0.0321029 19:-0.0361838 20:-0.11677 21:-0.0479633 22:-0.0509748 23:-0.307959 24:-0.302126 25:-0.30969 26:0.242387 27:0.430045 28:-0.287358 29:0.296976 30:0.0814815 31:-0.685277 32:-0.486362 33:-0.111365 34:-0.423865 35:-0.0108234 36:0.0882746 37:-0.337409 38:0.0101525 39:-0.0917252 
-40.85930224073341 -5.661340610395685 -11.63126814916455 -0 0 1:-0.956417 2:-1 3:-0.799228 4:-0.667976 5:0.466307 6:0.872547 7:0.707963 8:0.139909 9:-0.173538 10:0.0793668 11:0.140787 12:0.0975404 13:0.432664 14:-0.481044 15:0.329469 16:0.493808 17:-0.480509 18:0.30584 19:0.351405 20:0.290012 21:-0.618611 22:-0.316469 23:0.0328088 24:-0.063529 25:-0.722762 26:0.26631 27:0.524563 28:0.440018 29:0.610529 30:0.358719 31:-0.38406 32:-0.613896 33:-0.0340011 34:0.188951 35:0.754932 36:0.825606 37:-0.436784 38:-0.224803 39:0.00772721 
-1.409258155281753 -0 -51.46637311504539 -0.6881200175133476 -1.072754037587621 1:-0.192868 2:0.830318 3:-0.0159605 4:-0.108243 5:0.381885 6:-0.234979 7:-0.746217 8:-0.092643 9:-1 10:-1 11:-0.20926 12:-0.452054 13:-0.781503 14:-0.771143 15:0.0246842 16:0.979374 17:-0.832295 18:-0.246361 19:0.31506 20:-0.101371 21:-1 22:-0.708056 23:0.0438164 24:-0.991829 25:-1 26:0.395637 27:0.0975227 28:-0.610092 29:0.822188 30:0.177447 31:0.206494 32:-0.134785 33:0.755173 34:-0.324586 35:0.83243 36:0.558707 37:0.204825 38:0.272745 39:0.270654 
-3.18369005611609 -44.89870649430527 -7.138184487430975 -2.350113258356716 -2.363218649163083 1:1 2:1 3:-1 4:0.703158 5:-0.531631 6:-1 7:-0.83846 8:-0.567357 9:0.381752 10:-0.105815 11:0.0215854 12:1 13:0.139339 14:-0.382909 15:0.0251941 16:0.425402 17:0.62027 18:0.0399414 19:-0.0513282 20:0.54166 21:0.00852009 22:-0.711486 23:-0.268987 24:-0.451025 25:-0.325829 26:0.251285 27:-1 28:-0.652206 29:0.932541 30:-0.45824 31:0.550681 32:0.653381 33:0.87072 34:-0.430888 35:-0.516498 36:0.237737 37:-0.857265 38:-1 39:-0.413744 
-0.601781042027231 -54.83423829675567 -1.554249972910873 -0.2945494047821067 -0.4641505423345331 1:0.619451 2:0.951517 3:-0.787709 4:0.2576 5:-0.34645 6:-0.876581 7:-1 8:-0.817511 9:0.184556 10:0.0642554 11:-0.277624 12:0.135273 13:-0.342638 14:1 15:0.721812 16:-1 17:1 18:-1 19:-1 20:-1 21:-0.24111 22:0.656408 23:-0.963325 24:0.950628 25:1 26:0.297429 27:-0.60616 28:-1 29:1 30:0.879942 31:1 32:1 33:0.870268 34:-0.247949 35:-0.361571 36:-0.0641061 37:-0.210297 38:0.336932 39:0.361709 
-10.8567314740534 -128 -12.82616890197921 -10.93162646472538 -9.291757852856993 1:-0.611106 2:0.362097 3:0.696268 4:0.0130179 5:0.43175 6:0.17897 7:-0.333914 8:-0.750382 9:-0.560889 10:-0.102034 11:-0.590286 12:-0.265332 13:-0.201979 14:-0.0134549 15:0.912514 16:0.388181 17:0.370432 18:0.0206978 19:-0.297712 20:-0.348616 21:-0.353446 22:-0.15835 23:-0.318884 24:-0.817041 25:-0.740163 26:-0.396261 27:0.954833 28:-0.531817 29:-0.588074 30:-0.0580989 31:-0.576908 32:-0.509911 33:0.226602 34:0.0811404 35:0.818478 36:0.248091 37:0.332258 38:0.320582 39:0.0395673 
-1.661760438440449 -128 -0 -0.5713222002025335 -2.026912400157771 1:0.652433 2:0.745871 3:-0.359307 4:0.953444 5:-0.423176 6:-0.973917 7:-0.155463 8:-0.888655 9:-0.320586 10:-0.171 11:-0.173008 12:0.203864 13:-0.0306835 14:-0.903919 15:-0.237521 16:0.96875 17:-0.267414 18:0.218561 19:0.170099 20:0.126932 21:0.174836 22:-0.622995 23:-0.54884 24:-0.115113 25:-0.656726 26:-0.661892 27:0.0918233 28:-0.10576 29:0.117988 30:-0.640773 31:0.391388 32:0.1645 33:-0.121388 34:0.362671 35:0.548975 36:-0.0630607 37:0.095346 38:0.271079 39:-0.176291 
-1.707106941979836 -16.74535749161429 -66.31257836301289 -4.323859575859178 -2.486285003773149 1:-0.0701005 2:0.766245 3:0.0794733 4:0.0880101 5:0.502451 6:-0.48958 7:-0.500313 8:0.290067 9:-0.653061 10:-0.817148 11:0.280817 12:0.0716968 13:-0.906907 14:-0.632264 15:0.325335 16:0.321212 17:-1 18:0.417682 19:0.294964 20:-0.413144 21:0.275427 22:-0.683597 23:-0.672052 24:-0.533601 25:-0.617841 26:-0.461505 27:0.764686 28:-0.34586 29:0.120856 30:0.718613 31:-0.740997 32:-0.326355 33:0.447674 34:-0.891603 35:0.33931 36:0.357682 37:-0.581834 38:-0.0459293 39:0.452725 
