svm_type c_svc
kernel_type rbf
gamma 0.5
nr_class 6
total_sv 7803
rho -0.18187 -0.434887 0.131317 -0.532852 0.392014 0.926159 0.603449 0.338908 0.614746 -0.223752 -1.44322 0.484431 -0.190579 0.241269 0.807028
label 0 1 2 3 4 5
probA -7.12339 -7.49567 -7.00862 -7.33718 -7.45826 -7.05826 -5.33139 -7.2831 -8.0306 -6.94268 -1.68668 -8.24585 -6.88084 -7.96318 -7.47924
probB 0.0783928 0.652955 0.323756 0.516481 0.183172 -0.114066 -0.0181347 0.050105 0.381414 0.083294 -0.0399257 0.149743 -0.202979 -0.369 0.101052
nr_sv 947 1035 2010 914 1961 936
SV
0 0 1.115013904527123 0 0 1:0.421937 2:-0.209575 3:0.128526 4:-0.156559 5:0.301042 6:0.245218 7:0.414452 8:0.328273 9:0.161425 10:0.526912 11:0.095955 12:0.0550988 13:0.234027 14:-0.872689 15:-0.0994399 16:-0.048103 17:-0.249162 18:0.0461671 19:0.231774 20:-0.0878654 21:0.309127 22:0.365706 23:-0.0275588 24:0.0310659 25:-0.0454876 26:0.0670556 27:-0.0070927 28:-0.141451 29:-0.146798 30:-0.0724366 31:-0.295591 32:-0.0296699 33:-0.138618 34:-0.0941888 35:0.101069 36:-0.444456 37:-0.307596 38:0.137745 39:-0.115424 
0 0 0.4225972135907858 0 0 1:0.42037 2:-0.249859 3:0.0635856 4:-0.221448 5:0.24131 6:0.310251 7:0.335808 8:0.564157 9:0.404861 10:0.397616 11:0.0832598 12:0.190611 13:0.144685 14:-0.868763 15:-0.230684 16:-0.0759075 17:-0.219981 18:-0.107762 19:0.0662424 20:0.0351523 21:0.046562 22:0.0983382 23:-0.514515 24:-0.325392 25:0.247315 26:0.200507 27:-0.00490701 28:0.0015796 29:0.0971987 30:0.0994717 31:0.0234668 32:-0.0761337 33:0.0642838 34:-0.406489 35:-0.204897 36:0.0516151 37:-0.102034 38:0.0297991 39:-0.100253 
0 0 0 2.817381144507761 0 1:0.418604 2:-0.214661 3:0.0168542 4:-0.254294 5:0.26342 6:0.114383 7:0.340304 8:0.248196 9:0.358994 10:0.258015 11:-0.0162448 12:0.156273 13:0.255195 14:-0.873926 15:-0.134631 16:-0.0341865 17:-0.167696 18:0.0667887 19:0.239509 20:0.147606 21:0.109127 22:0.0286089 23:-0.164362 24:-0.0967703 25:-0.0315054 26:0.106074 27:-0.00505065 28:-0.0709386 29:0.0917021 30:0.0892444 31:-0.20308 32:0.1047 33:-0.0755408 34:0.0392473 35:-0.0918866 36:-0.0778051 37:-0.07661 38:-0.044295 39:-0.150857 
0 0 0.2321729491904141 0 0 1:0.423177 2:-0.259849 3:0.0434062 4:-0.158769 5:0.141841 6:0.166239 7:0.371477 8:0.547891 9:0.394723 10:0.287989 11:-0.0663065 12:0.196446 13:0.19782 14:-0.871066 15:-0.161552 16:-0.0322187 17:-0.179454 18:0.107969 19:0.204992 20:0.303409 21:0.447982 22:0.101719 23:-0.183945 24:-0.206463 25:-0.0743839 26:-0.0829415 27:-0.010208 28:-0.0205229 29:0.0618187 30:-0.0657955 31:-0.0163872 32:0.182 33:0.116431 34:-0.33135 35:-0.232858 36:-0.0736411 37:0.0682851 38:-0.134676 39:-0.189909 
0 0 0 2.442019380978619 0 1:0.423751 2:-0.284804 3:0.098623 4:-0.219204 5:0.145702 6:-0.0170459 7:0.160009 8:0.289116 9:0.226457 10:0.304212 11:0.000128682 12:-0.000358481 13:0.208955 14:-0.870221 15:-0.0967079 16:-0.0763843 17:-0.205769 18:0.0643639 19:0.301904 20:0.272077 21:0.199679 22:0.174899 23:0.194454 24:-0.00471203 25:-0.0816834 26:0.101114 27:-0.00911783 28:0.0418536 29:-0.0217689 30:0.0522818 31:0.14694 32:0.240753 33:0.125574 34:-0.189885 35:-0.275414 36:-0.321376 37:-0.249071 38:0.037269 39:-0.291457 
1.162175809973111 0 0 2.067506392163453 0 1:0.423438 2:-0.17887 3:0.127715 4:-0.0746825 5:0.259379 6:0.0835139 7:0.375973 8:0.256201 9:-0.070286 10:0.15802 11:-0.196115 12:-0.039531 13:0.100505 14:-0.843732 15:0.224025 16:0.313945 17:0.112698 18:0.157361 19:0.124141 20:-0.225034 21:-0.263518 22:-0.0966919 23:-0.382626 24:-0.532929 25:-0.210291 26:0.0564543 27:0.00653373 28:0.186562 29:0.110155 30:-0.0202391 31:0.0423591 32:0.0506324 33:-0.569976 34:-0.382571 35:0.168852 36:-0.291493 37:-0.262021 38:-0.167033 39:0.000154155 
0.2192686143510144 0.2842943995223068 0 0.432481515620116 0 1:0.436102 2:0.0933174 3:0.478244 4:-0.001401 5:0.200129 6:-0.0368882 7:0.255854 8:0.249206 9:-0.0897945 10:0.0813816 11:-0.256737 12:-0.0429099 13:0.0597743 14:-0.838296 15:0.279278 16:0.319732 17:0.0617601 18:0.239429 19:0.126106 20:-0.630081 21:-0.409821 22:0.0185585 23:-0.540443 24:-0.510232 25:-0.137982 26:0.0854138 27:-0.000775482 28:-0.0671651 29:-0.24001 30:-0.126261 31:-0.0688337 32:0.020333 33:-0.271858 34:-0.249332 35:0.269572 36:-0.0510097 37:0.0389384 38:0.00707244 39:0.0651082 
0.8782306883587406 0.3069741270962024 0 0.5251115232096141 0 1:0.449934 2:0.159208 3:0.409659 4:0.0122804 5:0.334136 6:-0.0663507 7:-0.295989 8:-0.108579 9:-0.328189 10:-0.124931 11:-0.465806 12:-0.0617623 13:0.126358 14:-0.842781 15:0.218798 16:0.182668 17:-0.000624766 18:0.223362 19:0.0172656 20:-0.598987 21:-0.227562 22:0.26428 23:-0.422276 24:-0.288471 25:-0.141411 26:0.288107 27:-0.000309571 28:-0.207241 29:-0.407252 30:-0.131629 31:-0.281716 32:-0.117933 33:0.231321 34:0.0843319 35:0.315922 36:0.380978 37:0.361828 38:0.222209 39:-0.00287517 
0.00646353198170972 0.2492474224647852 0.1243366085599983 0 0.3206835553858616 1:0.45614 2:0.210223 3:0.45269 4:0.0169562 5:0.3149 6:-0.0684796 7:-0.451733 8:-0.0933843 9:-0.0576577 10:-0.172489 11:-0.457495 12:-0.111726 13:0.1399 14:-0.84092 15:0.0151364 16:-0.0870077 17:-0.0629984 18:-0.0205905 19:0.0057846 20:-0.164099 21:-0.253456 22:0.322045 23:-0.216805 24:-0.175966 25:-0.120816 26:0.295648 27:0.00731023 28:-0.216922 29:-0.446305 30:-0.0644233 31:-0.359295 32:-0.178714 33:0.496841 34:0.23301 35:0.132026 36:0.661331 37:0.467752 38:0.40051 39:-0.159221 
0.002613207578420708 1.297932082235628 0.2910160151335391 0.8602046680221938 0.2764568629162661 1:0.458368 2:0.25581 3:0.45862 4:0.067863 5:0.335844 6:-0.122441 7:-0.296909 8:-0.00681486 9:0.138023 10:-0.170097 11:-0.401061 12:-0.260742 13:0.292399 14:-0.824304 15:-0.00042072 16:-0.179755 17:-0.072389 18:-0.233451 19:-0.291965 20:0.127539 21:-0.0055628 22:0.315492 23:0.159379 24:0.0952982 25:0.0841293 26:0.170866 27:0.0126484 28:-0.120612 29:-0.318446 30:-0.0205906 31:-0.252649 32:-0.0662568 33:0.391446 34:0.235011 35:-0.0464089 36:0.659105 37:0.485459 38:0.587826 39:-0.390291 
0 0.4043680355525898 0 0 0 1:0.479809 2:0.248722 3:0.321102 4:0.0538985 5:0.0404943 6:-0.243979 7:-0.156818 8:-0.271048 9:-0.0121166 10:-0.124364 11:-0.477126 12:-0.173749 13:0.21882 14:-0.808266 15:0.0145614 16:-0.259176 17:-0.023149 18:-0.219729 19:-0.330614 20:0.165842 21:0.128017 22:0.157054 23:0.460331 24:0.354938 25:0.377012 26:0.0634926 27:0.00341648 28:-0.0396955 29:-0.097606 30:0.00500874 31:-0.0492055 32:0.0826826 33:0.117629 34:0.22918 35:-0.0346054 36:0.351026 37:0.381744 38:0.407736 39:-0.466234 
0 0.4405775809872233 0 0 0 1:0.512585 2:0.321556 3:0.187755 4:0.066567 5:0.0572225 6:-0.560875 7:-0.445134 8:-0.153465 9:-0.0499781 10:0.0377706 11:-0.361159 12:-0.00941291 13:0.161656 14:-0.805022 15:0.0219298 16:-0.284941 17:-0.0587211 18:-0.135416 19:-0.175966 20:0.167536 21:0.234747 22:0.122926 23:0.526089 24:0.546879 25:0.578619 26:-0.119844 27:-0.0164614 28:-0.0996194 29:0.0414861 30:-0.0191224 31:0.0105456 32:0.33301 33:0.0551793 34:-0.0316432 35:0.0414236 36:-0.11061 37:0.140871 38:0.0617379 39:-0.324702 
0.026090539815953 1.764085432953849 0 0.9111737458360967 0.03009618657336654 1:0.529153 2:0.380239 3:0.167666 4:0.144544 5:0.0565552 6:-0.476596 7:-0.32527 8:0.0270929 9:0.100329 10:0.24242 11:-0.111888 12:0.143599 13:0.136064 14:-0.822101 15:-0.0443414 16:-0.231565 17:-0.0597523 18:-0.090684 19:-0.0826677 20:0.155852 21:0.267171 22:0.220141 23:0.240869 24:0.442807 25:0.272864 26:-0.228782 27:-0.0306327 28:-0.162879 29:0.126718 30:-0.0420545 31:-0.022126 32:0.30584 33:0.0185643 34:-0.254443 35:0.0836705 36:-0.438753 37:-0.0955827 38:-0.232019 39:-0.112442 
0 1.291042627123282 0.4899618547368449 1.02215802176873 0 1:0.539003 2:0.403412 3:0.0718121 4:0.110338 5:0.0312951 6:-0.453166 7:-0.157943 8:0.0357818 9:0.0947371 10:0.237913 11:-0.0179841 12:0.209141 13:0.0187521 14:-0.844104 15:-0.129507 16:-0.166148 17:-0.0894916 18:-0.190623 19:0.109896 20:0.337568 21:0.0170788 22:0.251063 23:-0.0577076 24:0.300828 25:0.146924 26:-0.081142 27:-0.0326482 28:-0.168944 29:0.150321 30:0.0451902 31:-0.00386172 32:0.247591 33:-0.0353631 34:-0.282691 35:0.061961 36:-0.374059 37:-0.139362 38:-0.20325 39:0.170218 
0 0 0.476337659391646 0 0 1:0.547692 2:0.346337 3:0.00425043 4:0.13344 5:-0.182541 6:-0.594882 7:-0.182068 8:-0.177929 9:0.167854 10:0.0800813 11:-0.012199 12:0.175798 13:0.051963 14:-0.860332 15:-0.193992 16:-0.120821 17:0.0404166 18:-0.026875 19:0.122757 20:0.151512 21:0.0023098 22:0.168787 23:-0.101352 24:0.253782 25:0.208854 26:0.290817 27:-0.0171491 28:-0.0627229 29:0.0820042 30:0.112977 31:0.160609 32:0.235782 33:-0.0806981 34:0.12108 35:-0.0222824 36:0.142491 37:-0.0162462 38:0.115587 39:0.146303 
0 0.710394133759399 0.7154473696482733 0 0 1:0.552913 2:0.309112 3:-0.0937594 4:0.271389 5:-0.151458 6:-0.541449 7:-0.155322 8:-0.0617489 9:0.153151 10:0.141842 11:0.131307 12:0.287448 13:0.150585 14:-0.868387 15:-0.21993 16:-0.0906844 17:0.050408 18:0.0998208 19:0.270986 20:0.231396 21:0.253299 22:0.0763066 23:-0.001336 24:0.0641406 25:0.147787 26:0.2466 27:-0.0219295 28:7.74744e-06 29:0.265125 30:-0.136242 31:-0.021607 32:0.159831 33:0.0451792 34:-0.0389144 35:-0.0534418 36:0.022204 37:-0.283628 38:-0.0755881 39:-0.397651 
0 0.6144502257010994 0 0 0 1:0.533931 2:0.277402 3:0.0616163 4:0.259777 5:-0.208417 6:-0.465749 7:0.0409166 8:-0.0449427 9:0.0337015 10:0.0662766 11:0.0225352 12:0.311824 13:0.0833993 14:-0.897936 15:-0.158591 16:0.260056 17:-0.128701 18:0.169002 19:0.224736 20:0.239946 21:0.0723396 22:-0.0125779 23:-0.0943368 24:-0.368083 25:0.0561399 26:-0.223029 27:-0.0117662 28:-0.0179948 29:0.115779 30:0.0352751 31:0.124241 32:0.0341107 33:-0.134331 34:-0.00155624 35:0.0467783 36:-0.142138 37:0.135711 38:-0.15308 39:-0.22948 
0 2.214175622964583 0 0 0 1:0.521801 2:0.223052 3:0.208731 4:0.301681 5:-0.100455 6:-0.54582 7:0.00244474 8:-0.0411385 9:-0.00562391 10:0.00512742 11:-0.188965 12:0.217785 13:-0.140124 14:-0.893674 15:-0.187029 16:0.169988 17:-0.0250012 18:0.323496 19:0.248303 20:0.200295 21:0.320598 22:0.0146633 23:-0.34101 24:0.112233 25:-0.102779 26:-0.0121981 27:-0.00954138 28:0.0485029 29:-0.168642 30:-0.180161 31:0.203863 32:0.276387 33:-0.107217 34:0.192832 35:0.0638983 36:-0.00849262 37:0.403917 38:0.135114 39:0.140608 
0 0.4248521501821703 0 0 0 1:0.504455 2:0.217737 3:0.289429 4:0.348624 5:-0.0105273 6:-0.421741 7:0.164031 8:0.208718 9:-0.0715979 10:-0.2045 11:0.080235 12:0.178985 13:-0.057634 14:-0.903878 15:-0.0668065 16:0.0171398 17:-0.439964 18:0.595729 19:0.497957 20:0.0343372 21:0.494192 22:0.0155957 23:-0.191604 24:0.219791 25:0.0640614 26:0.100626 27:-0.00194969 28:0.10677 29:-0.165957 30:-0.418475 31:0.223669 32:0.16622 33:-0.427555 34:-0.0805555 35:0.0453122 36:0.111372 37:-0.0586872 38:0.117591 39:-0.233086 
0.07552391358123442 0 0.4505530783140583 0 0.47607613321122 1:0.487407 2:0.33224 3:0.232222 4:-0.0194343 5:0.519942 6:-0.255121 7:-0.37138 8:0.488047 9:-0.229442 10:-0.351621 11:0.149583 12:0.108621 13:-0.310357 14:-0.867058 15:-0.0688452 16:-0.073909 17:-0.17085 18:0.173807 19:0.269519 20:0.1109 21:0.129824 22:0.0819222 23:0.00777905 24:0.0959982 25:-0.0206028 26:0.13895 27:-0.00563869 28:-0.138444 29:0.030798 30:0.324972 31:-0.508047 32:-0.0283432 33:0.34307 34:-0.394745 35:0.049644 36:0.31001 37:-0.150425 38:0.0196338 39:0.183492 
0 0.05937725369944054 0 0.2522986360384191 0.2819445962260925 1:0.487583 2:0.354683 3:0.14693 4:-0.00780988 5:0.459094 6:-0.237146 7:-0.23953 8:0.405104 9:-0.182612 10:-0.190118 11:0.043402 12:0.0585196 13:-0.179102 14:-0.878458 15:-0.200699 16:-0.0395383 17:-0.100375 18:-0.0531939 19:0.147916 20:0.211785 21:-0.200348 22:-0.0310899 23:0.0933917 24:-0.296804 25:-0.0680849 26:0.28037 27:-0.0200972 28:-0.131709 29:0.258321 30:0.0416497 31:-0.198472 32:0.0876021 33:0.0327252 34:-0.33295 35:0.0648184 36:-0.00567559 37:-0.0750317 38:0.0667749 39:-0.0940185 
0 0 0 0.05443798442815782 0 1:0.4416 2:0.0284661 3:0.479129 4:0.0812168 5:0.550014 6:0.289176 7:0.215737 8:0.101754 9:-0.0819318 10:-0.106906 11:-0.339037 12:-0.195498 13:-0.303197 14:-0.88591 15:-0.404886 16:-0.177336 17:-0.168748 18:0.234105 19:0.5145 20:0.591456 21:0.246674 22:0.208264 23:0.156545 24:-0.0743132 25:-0.140528 26:-0.0825972 27:-0.00289868 28:0.00363642 29:-0.150744 30:-0.124862 31:-0.373243 32:-0.223167 33:0.15314 34:0.160854 35:0.245824 36:0.384027 37:0.422673 38:0.448234 39:0.338746 
0.8266017431620758 0 0 0 0.01539507822653517 1:0.435098 2:-0.0344236 3:0.375572 4:0.036562 5:0.443092 6:0.174208 7:0.194223 8:0.0966228 9:-0.182779 10:-0.0438788 11:-0.38167 12:-0.354531 13:-0.34565 14:-0.882757 15:-0.381096 16:-0.143287 17:-0.184802 18:0.00139649 19:0.375222 20:0.766804 21:0.478958 22:0.417637 23:0.426356 24:0.163947 25:0.128833 26:0.295646 27:-0.00238346 28:0.152563 29:0.0802826 30:-0.0765279 31:-0.303936 32:-0.0986955 33:0.0253476 34:0.0721949 35:0.239994 36:0.390075 37:0.453584 38:0.625927 39:0.454989 
0 0 0.2194254765067683 0 0.4495828701817401 1:0.431006 2:-0.121783 3:0.341279 4:0.0462017 5:0.42296 6:0.323753 7:0.611086 8:0.248976 9:-0.0775521 10:-0.0025708 11:-0.269263 12:-0.228265 13:-0.043385 14:-0.879517 15:-0.265405 16:-0.141063 17:-0.255885 18:-0.108668 19:0.25999 20:0.742753 21:0.535884 22:0.564987 23:0.770569 24:0.546943 25:0.487978 26:0.616699 27:-2.42035e-05 28:0.277992 29:0.204191 30:0.0111776 31:-0.0676275 32:-0.0199934 33:-0.414778 34:-0.125992 35:-0.00609101 36:0.0762172 37:0.290415 38:0.461434 39:0.15297 
0.2649705702612636 0 0.5000117264889451 0 0.5832176498486792 1:0.432448 2:-0.139722 3:0.32699 4:0.00829426 5:0.314776 6:0.303202 7:0.817182 8:0.526791 9:0.343492 10:0.373795 11:-0.0527213 12:0.0152459 13:0.0428862 14:-0.874781 15:-0.120225 16:-0.0203008 17:-0.191223 18:0.030058 19:0.321052 20:0.452415 21:0.362781 22:0.404767 23:0.579181 24:0.567792 25:0.54895 26:0.528623 27:-5.81128e-06 28:0.295118 29:0.258599 30:0.0812116 31:0.134589 32:0.0258856 33:-0.719774 34:-0.355887 35:-0.309985 36:-0.467034 37:-0.0682386 38:0.11579 39:-0.1506 
0.5827190035596214 0 0.3850313081659412 0 0.4452844300386567 1:0.429154 2:-0.113863 3:0.280399 4:-0.0338028 5:0.349738 6:0.285915 7:0.770517 8:0.486084 9:0.329116 10:0.545426 11:0.0622514 12:0.136867 13:0.175066 14:-0.87099 15:0.000788813 16:0.0512673 17:-0.14383 18:0.159104 19:0.282962 20:-0.0615959 21:0.198548 22:0.0785084 23:0.145008 24:0.342692 25:0.388146 26:0.319552 27:-0.000865845 28:0.167843 29:0.227394 30:0.12886 31:0.218039 32:0.0819252 33:-0.597587 34:-0.366582 35:-0.280044 36:-0.603005 37:-0.345971 38:-0.206292 39:-0.336349 
0.2861420029998953 0 0.2986013642363397 0 0 1:0.429824 2:-0.027044 3:0.384858 4:0.018562 5:0.381678 6:0.325554 7:0.571156 8:0.343096 9:0.0484092 10:0.332109 11:0.0400744 12:0.0550278 13:0.0995631 14:-0.86806 15:0.0534222 16:0.138485 17:-0.0871163 18:0.241474 19:0.207067 20:-0.300172 21:0.0578939 22:-0.136037 23:-0.334947 24:-0.00108673 25:0.28792 26:0.380223 27:-0.00419641 28:-0.0193948 29:0.0528673 30:0.0378048 31:0.12788 32:0.0799519 33:-0.179461 34:-0.258452 35:-0.000567907 36:-0.197795 37:-0.342556 38:-0.306311 39:-0.310152 
0.6316944098398192 0 0 0 0 1:0.433675 2:-0.00126293 3:0.411615 4:0.041844 5:0.602039 6:0.416209 7:0.570682 8:0.394339 9:0.274619 10:0.480643 11:-0.0264801 12:0.114574 13:0.240717 14:-0.879674 15:-0.234039 16:-0.147553 17:-0.249325 18:0.175096 19:0.269917 20:0.250163 21:-0.06268 22:0.236022 23:0.33036 24:-0.0269914 25:-0.125662 26:0.0373489 27:-0.0140784 28:-0.205071 29:-0.195585 30:-0.169527 31:-0.323714 32:0.00618953 33:0.140924 34:-0.0101658 35:0.0173359 36:-0.190808 37:0.0346576 38:-0.093632 39:-0.300911 
1.003853072362598 0 0.1333433277378057 0 0 1:0.420473 2:-0.108694 3:0.233391 4:-0.0678827 5:0.468678 6:0.392855 7:0.535825 8:0.355292 9:0.186603 10:0.447916 11:0.0233429 12:0.0488226 13:0.204775 14:-0.880392 15:-0.278829 16:-0.146757 17:-0.319279 18:-0.149885 19:0.0851806 20:0.226565 21:0.194899 22:0.0963043 23:-0.503961 24:-0.178115 25:-0.0220432 26:0.0462423 27:-0.0017569 28:0.0169197 29:0.114795 30:-0.000947983 31:-0.179918 32:-0.0820784 33:-0.220103 34:0.0340559 35:0.030369 36:-0.296809 37:0.0389203 38:0.329326 39:-0.0314581 
0 0 0 0.40775132138847 0 1:0.421619 2:-0.152143 3:0.243354 4:-0.121582 5:0.342331 6:0.304876 7:0.667572 8:0.450798 9:0.239368 10:0.0590388 11:-0.190505 12:0.0176905 13:0.159315 14:-0.868752 15:-0.194276 16:-0.0329759 17:-0.231288 18:-0.0370516 19:-0.000471256 20:-0.0277648 21:0.0942243 22:0.153092 23:-0.165829 24:-0.00174141 25:0.194474 26:0.0971771 27:-0.00150534 28:0.0911201 29:0.117113 30:0.169152 31:0.0800156 32:0.105982 33:-0.224774 34:-0.155444 35:0.139656 36:0.592099 37:0.322598 38:0.26316 39:0.0398902 
0 7.360728581626933 0 7.294255247435848 0 1:0.419706 2:-0.307071 3:-0.00660779 4:-0.221477 5:0.0892638 6:0.0893784 7:0.371618 8:0.508519 9:0.330613 10:0.242721 11:-0.0586624 12:0.112428 13:0.28268 14:-0.87022 15:-0.0608436 16:0.0312919 17:-0.0572346 18:0.259525 19:0.19271 20:0.0389336 21:-0.168022 22:-0.0617398 23:0.185593 24:-0.0692854 25:-0.00262353 26:0.216688 27:-0.00726373 28:0.0375479 29:0.0558988 30:-0.0505688 31:-0.0685107 32:0.138333 33:-0.0186505 34:-0.0340626 35:0.165077 36:-0.145795 37:-0.0390778 38:-0.0264805 39:-0.332257 
0 0 0 6.29585584448513 0 1:0.422212 2:-0.287191 3:-0.00582353 4:-0.189622 5:0.172075 6:0.109966 7:0.335854 8:0.36437 9:0.188038 10:0.381372 11:-0.0540528 12:0.104132 13:0.366588 14:-0.869326 15:0.00125977 16:0.0626748 17:-0.0859724 18:0.250393 19:0.237362 20:0.0388716 21:-0.213716 22:-0.0168998 23:0.0340538 24:-0.225376 25:-0.0827536 26:0.0534229 27:-0.00903518 28:-0.0202928 29:0.00606912 30:-0.122542 31:-0.124828 32:0.136456 33:0.0287949 34:0.0606098 35:0.201556 36:-0.218303 37:0.0117633 38:-0.0788502 39:-0.410588 
0.6466069781000926 0.2825761366681265 0 0 1.45950871552733 1:0.420817 2:-0.284343 3:-0.0437026 4:-0.314221 5:0.101481 6:-0.0357263 7:0.245681 8:0.295199 9:0.0975675 10:0.214941 11:-0.133021 12:-0.215138 13:0.0908733 14:-0.862351 15:-0.106455 16:0.0955644 17:-0.0365646 18:0.110378 19:0.106613 20:-0.042235 21:0.150894 22:0.241976 23:0.0583056 24:0.515213 25:0.443658 26:0.0397701 27:-0.0083007 28:0.10704 29:0.195449 30:0.203109 31:0.0924239 32:0.2218 33:-0.133061 34:-0.0837587 35:0.294516 36:0.266743 37:0.114792 38:0.433195 39:-0.0524634 
0 1.433160176407188 0 0 0 1:0.424446 2:-0.272969 3:0.0196682 4:-0.250801 5:0.152726 6:0.0734562 7:0.286462 8:0.341936 9:0.144019 10:0.188357 11:0.0689167 12:0.0406114 13:0.0881394 14:-0.86701 15:-0.0863021 16:0.120753 17:0.0110636 18:0.206445 19:0.137488 20:-0.0793205 21:0.0886381 22:0.286235 23:0.217338 24:0.460484 25:0.466994 26:0.0692037 27:-0.0131072 28:0.0461437 29:0.0405985 30:0.0437261 31:0.0126622 32:0.202664 33:-0.0132713 34:-0.0956021 35:0.120483 36:0.186982 37:-0.218064 38:0.0342145 39:0.0430413 
0 1.031072250100164 0.255690501602027 0 1.197029415854672 1:0.42626 2:-0.262097 3:0.101579 4:-0.175922 5:0.190375 6:-0.00628328 7:0.149452 8:0.31627 9:0.261986 10:0.35823 11:0.292784 12:0.161469 13:0.0883973 14:-0.874925 15:-0.0901598 16:0.070038 17:0.014483 18:0.237397 19:0.278051 20:-0.028714 21:0.100495 22:0.269611 23:0.343165 24:0.194884 25:0.362605 26:0.269641 27:-0.0116883 28:-0.0122781 29:-0.0988905 30:-0.127299 31:-0.13282 32:0.233384 33:0.193161 34:-0.04927 35:-0.069117 36:-0.0664396 37:-0.454274 38:-0.200176 39:0.0703161 
0 0 0 0 0.124118376559335 1:0.415596 2:-0.234697 3:0.058027 4:-0.18143 5:0.207374 6:0.0992034 7:0.10911 8:0.328032 9:0.2946 10:0.502181 11:0.0406446 12:0.118919 13:0.256161 14:-0.871111 15:-0.100411 16:-0.0400159 17:-0.204889 18:-0.0353534 19:0.362213 20:0.365322 21:0.214482 22:0.0704712 23:-0.130138 24:-0.346638 25:0.151287 26:0.283078 27:-0.000251105 28:-0.065704 29:-0.0438022 30:-0.147243 31:-0.185831 32:0.137805 33:0.200239 34:0.0252199 35:0.0726573 36:-0.2423 37:0.0444235 38:-0.000469151 39:-0.299097 
0 0 0.1313045147022263 0 0 1:0.424002 2:-0.218709 3:0.118274 4:-0.183993 5:0.301524 6:0.289499 7:0.61192 8:0.358497 9:0.229094 10:0.329566 11:0.037281 12:0.0502663 13:0.272969 14:-0.868307 15:-0.021515 16:0.0762767 17:-0.064535 18:0.0461484 19:0.0945448 20:0.0794593 21:0.382015 22:0.248525 23:0.350818 24:0.0987104 25:0.2423 26:0.371454 27:-0.00613175 28:-0.085182 29:-0.0250264 30:0.0594366 31:-0.178857 32:-0.00609374 33:-0.262592 34:0.167484 35:0.07126 36:-0.0769334 37:-0.0132264 38:0.28502 39:-0.333451 
0 0 1.959688997503197 0 0 1:0.421309 2:-0.189324 3:0.121409 4:-0.166665 5:0.224529 6:0.19869 7:0.555023 8:0.414766 9:0.20965 10:0.486183 11:0.0320046 12:0.164638 13:0.413943 14:-0.869258 15:-0.0936611 16:0.0276107 17:-0.00507037 18:0.0633351 19:0.204058 20:0.118498 21:0.447007 22:0.146483 23:0.127719 24:0.017265 25:0.295423 26:0.169059 27:-0.00731922 28:-0.141832 29:-0.0683147 30:-0.0515172 31:-0.12134 32:0.0869963 33:-0.211595 34:-0.0932814 35:0.0608812 36:-0.283942 37:-0.0177743 38:0.109816 39:-0.55211 
0 0 0.5296240124124465 0 0 1:0.422157 2:-0.242822 3:0.0692489 4:-0.131006 5:0.209511 6:0.262132 7:0.424944 8:0.532482 9:0.16817 10:0.395576 11:0.0814172 12:0.231491 13:0.161006 14:-0.870496 15:-0.170468 16:-0.0180728 17:-0.201149 18:-0.0118144 19:0.168138 20:-0.0723387 21:0.0688533 22:0.234784 23:-0.13968 24:-0.0263779 25:0.0930257 26:-0.324356 27:-0.00866725 28:-0.0432956 29:0.014762 30:-0.0612298 31:0.0822586 32:0.055301 33:-0.0862663 34:-0.321921 35:0.209743 36:0.0653505 37:-0.0492262 38:-0.171715 39:-0.201494 
0.2585746288321111 0 0 0 0 1:0.421673 2:-0.284642 3:0.00648185 4:-0.219119 5:0.13901 6:0.176124 7:0.321983 8:0.39975 9:0.172741 10:0.345431 11:0.118311 12:0.0975463 13:0.0880572 14:-0.869984 15:-0.00170144 16:0.130726 17:-0.0797902 18:0.0528866 19:0.214171 20:0.15479 21:0.13403 22:0.0665708 23:-0.184304 24:-0.0476805 25:0.29782 26:0.134775 27:0.000715034 28:0.318232 29:0.351993 30:0.135947 31:0.121459 32:-0.105234 33:-0.383571 34:-0.457945 35:-0.0333491 36:-0.264746 37:-0.431159 38:0.0405306 39:0.0257541 
0.1627543498673794 0 0 0 0 1:0.425729 2:-0.11395 3:0.286234 4:-0.0621614 5:0.209065 6:0.0895249 7:0.142161 8:0.207285 9:-0.0824402 10:-0.012528 11:-0.104897 12:0.229055 13:0.0852743 14:-0.855757 15:0.326972 16:0.389918 17:0.114567 18:0.262985 19:-0.139131 20:-0.352545 21:-0.392822 22:-0.165345 23:-0.490755 24:-0.791122 25:-0.0469667 26:0.203548 27:-0.0013176 28:0.100732 29:-0.0378814 30:-0.0492706 31:0.0272338 32:0.0446598 33:-0.169304 34:-0.230174 35:0.0337947 36:0.153363 37:-0.00548102 38:-0.356832 39:-0.166099 
0.1199653585945388 0 0 0.05681798909878023 0 1:0.43488 2:0.0947332 3:0.490583 4:0.023294 5:0.251516 6:-0.0476235 7:-0.0865974 8:-0.00553182 9:-0.0348682 10:-0.0459753 11:-0.299052 12:0.108092 13:0.135685 14:-0.853167 15:0.335282 16:0.271675 17:-0.0330683 18:0.211442 19:-0.0352942 20:-0.267252 21:-0.267726 22:-0.0816396 23:-0.277005 24:-0.492558 25:-0.209978 26:0.119907 27:-0.00912222 28:-0.21273 29:-0.318147 30:-0.167134 31:-0.0328831 32:0.279414 33:0.146604 34:-0.0158369 35:0.0939604 36:0.315571 37:0.353204 38:-0.177946 39:-0.275098 
0 0 0 0.1081795899814105 0 1:0.440868 2:0.180649 3:0.471209 4:-0.0406404 5:0.249237 6:-0.131684 7:-0.139451 8:-0.0495403 9:-0.127366 10:0.0150732 11:-0.488735 12:0.0466329 13:0.194721 14:-0.858105 15:0.13238 16:0.0659481 17:-0.112004 18:0.166915 19:0.118871 20:-0.0730293 21:-0.144693 22:0.0665837 23:0.00378929 24:-0.0923754 25:-0.247956 26:0.0665151 27:-0.0129373 28:-0.415233 29:-0.324918 30:-0.0533444 31:-0.0197378 32:0.374542 33:0.270594 34:0.0917905 35:0.159675 36:0.33004 37:0.516206 38:0.0467665 39:-0.328698 
0 0 0 0.206413250918004 0 1:0.443996 2:0.154014 3:0.448369 4:0.0226053 5:0.351765 6:-0.0149662 7:-0.121643 8:-0.319149 9:-0.227038 10:-0.044038 11:-0.345621 12:-0.0413556 13:-0.034592 14:-0.861764 15:-0.194778 16:-0.0375012 17:0.00829634 18:0.296488 19:0.199183 20:0.116766 21:0.0156138 22:0.0786035 23:0.0758275 24:-0.187427 25:-0.0913603 26:0.0182047 27:0.0109636 28:0.0978558 29:-0.144705 30:-0.0879435 31:-0.281106 32:-0.169924 33:-0.0303955 34:0.32974 35:0.36201 36:0.25409 37:-0.0277878 38:0.1051 39:0.00642813 
0 0.513067072324216 0.2113478325731692 0.5993596410148904 0.9566709493672921 1:0.448454 2:0.120875 3:0.468134 4:0.125483 5:0.40757 6:-0.00617889 7:-0.105364 8:-0.109839 9:-0.17942 10:0.0545279 11:-0.300289 12:-0.127252 13:-0.0587487 14:-0.853666 15:-0.0646755 16:-0.062777 17:-0.1397 18:0.0869688 19:0.198672 20:0.360715 21:0.45087 22:0.368205 23:0.312517 24:-0.120838 25:-0.101944 26:0.0518185 27:0.0256308 28:0.215881 29:-0.301185 30:-0.156379 31:-0.457936 32:-0.345891 33:-0.256122 34:0.129458 35:0.35582 36:0.0988116 37:0.13429 38:0.359913 39:0.0547626 
0.02344218145154391 0.2844855814052122 0 0.5719225418242797 0.4703249951785951 1:0.456415 2:0.179045 3:0.392297 4:0.034548 5:0.374771 6:-0.0459716 7:-0.109102 8:-0.0700974 9:-0.101118 10:0.091574 11:-0.362815 12:-0.154499 13:-0.0089013 14:-0.822309 15:0.0503674 16:-0.296737 17:-0.181817 18:-0.196184 19:-0.249166 20:0.0067423 21:0.409585 22:0.476083 23:0.239453 24:0.0130951 25:-0.0362368 26:0.0926546 27:0.029406 28:0.161277 29:-0.286398 30:-0.00492881 31:-0.436512 32:-0.332576 33:-0.43345 34:-0.132096 35:0.225496 36:-0.158796 37:0.356001 38:0.589102 39:0.000151862 
0.6937080845911388 1.20859564258849 1.240942582883854 1.362011347025217 0.941261651575561 1:0.46215 2:0.260026 3:0.357756 4:0.00709039 5:0.255365 6:-0.0185871 7:0.169888 8:0.216313 9:0.18023 10:0.244511 11:-0.386982 12:-0.272411 13:-0.0415253 14:-0.796271 15:0.0977182 16:-0.410767 17:-0.143866 18:-0.349826 19:-0.438183 20:-0.278121 21:0.145756 22:0.478633 23:0.0155214 24:0.238832 25:0.419526 26:0.182388 27:0.0170825 28:0.000732049 29:-0.116291 30:0.165141 31:-0.190819 32:-0.153387 33:-0.464036 34:-0.370066 35:-0.0179904 36:-0.349506 37:0.357869 38:0.703497 39:0.0374061 
0.2686770268014841 0.5622463527847767 0.7686063700627617 0.4706737419803178 0.37508400590348 1:0.538544 2:0.362356 3:-0.0197303 4:0.11979 5:0.0120142 6:-0.511341 7:-0.518222 8:-0.0468061 9:0.247865 10:0.060297 11:-0.0906236 12:0.276316 13:0.0636637 14:-0.803497 15:-0.0361391 16:-0.255733 17:0.0804379 18:-0.167253 19:-0.263143 20:-0.345375 21:0.0115514 22:0.248828 23:-0.293675 24:0.464436 25:0.749978 26:0.305856 27:-0.039011 28:-0.181399 29:0.321435 30:0.115251 31:0.257531 32:0.460945 33:0.440937 34:-0.0180614 35:-0.165018 36:0.0883256 37:-0.116272 38:-0.0834754 39:0.00265176 
0.3334889007859262 0.8134782953617539 0.08095214027062599 0.6222365225122675 0.6595041031268368 1:0.553424 2:0.37265 3:-0.0382497 4:0.198831 5:-0.0281891 6:-0.563137 7:-0.449025 8:0.0779653 9:0.30938 10:0.0144005 11:-0.0117463 12:0.394201 13:0.165986 14:-0.859969 15:-0.137739 16:-0.0786191 17:0.0238793 18:0.108602 19:0.103298 20:0.433713 21:0.176299 22:0.0635213 23:0.0404497 24:-0.0609086 25:0.217561 26:0.313536 27:-0.0441883 28:-0.097182 29:0.27277 30:-0.169411 31:0.15047 32:0.343106 33:0.453271 34:-0.143139 35:-0.228143 36:0.199775 37:-0.285909 38:-0.653137 39:-0.322348 
0 0.4789312717363376 0 0 0 1:0.555039 2:0.370857 3:-0.0762991 4:0.259263 5:-0.0304367 6:-0.638593 7:-0.310758 8:0.0684882 9:0.317782 10:0.0895512 11:-0.0852937 12:0.39693 13:0.225645 14:-0.877233 15:-0.151507 16:0.0166199 17:-0.0398283 18:0.179729 19:0.207568 20:0.599196 21:0.0905525 22:-0.0595306 23:0.068154 24:-0.082221 25:0.0357329 26:0.260578 27:-0.0297095 28:-0.0636059 29:0.213621 30:-0.184528 31:0.00969843 32:0.202504 33:0.0708477 34:-0.289158 35:-0.219871 36:0.0248924 37:-0.143143 38:-0.557478 39:-0.456398 
0 0 0 0 0.2283017695081417 1:0.552382 2:0.350695 3:-0.108758 4:0.235101 5:0.00149599 6:-0.588181 7:-0.198233 8:0.0323677 9:0.152335 10:0.0560616 11:-0.158104 12:0.387786 13:0.228478 14:-0.889108 15:-0.165245 16:0.101282 17:-0.167336 18:0.161436 19:0.232174 20:0.539463 21:-0.0612056 22:-0.211642 23:-0.0402562 24:-0.178625 25:-0.301472 26:-0.0299426 27:-0.0175406 28:-0.0486093 29:0.186336 30:-0.057404 31:-0.0884801 32:0.154737 33:-0.14693 34:-0.239394 35:-0.0418322 36:-0.0246654 37:-0.0213222 38:-0.298867 39:-0.39308 
0 2.094166050895232 0.5005837847546664 0.6872203316742419 0 1:0.538164 2:0.352497 3:0.0587396 4:0.222963 5:0.0228133 6:-0.536739 7:0.00702486 8:0.0210052 9:0.0971015 10:0.0352858 11:-0.101252 12:0.214609 13:0.186972 14:-0.890011 15:-0.180146 16:0.144388 17:-0.149579 18:0.100027 19:0.273044 20:0.424764 21:-0.101037 22:-0.205929 23:-0.0752294 24:-0.151836 25:-0.342055 26:-0.102934 27:-0.00433152 28:-0.0502455 29:0.0447364 30:0.0871277 31:-0.112274 32:0.0622773 33:-0.252134 34:-0.122423 35:0.156356 36:-0.0114731 37:0.0192033 38:0.0491671 39:-0.170551 
0 2.372996674350351 0 0 0 1:0.534304 2:0.307793 3:0.0853036 4:0.272002 5:-0.0461604 6:-0.563601 7:0.0219946 8:-0.124644 9:-0.0511241 10:0.0414651 11:-0.229924 12:0.0722228 13:0.0521141 14:-0.873188 15:-0.20778 16:0.0405371 17:0.0557716 18:0.0823329 19:0.147742 20:0.265385 21:-0.00244471 22:0.0902375 23:-0.0537017 24:-0.133985 25:-0.00736195 26:0.160364 27:-0.0065626 28:-0.0516448 29:-0.013793 30:0.0108718 31:0.0616367 32:0.0708091 33:-0.131929 34:0.103371 35:0.305629 36:0.0340987 37:0.297076 38:0.434435 39:0.0881037 
0 1.721994105280738 0 0.3140787035144775 0 1:0.533637 2:0.260056 3:0.132803 4:0.363727 5:0.0131523 6:-0.607405 7:0.175153 8:-0.102499 9:0.057212 10:-0.0219709 11:-0.201159 12:0.0988221 13:0.195138 14:-0.892283 15:-0.228997 16:0.0976152 17:-0.165826 18:0.265921 19:0.259498 20:0.238634 21:0.165602 22:0.170535 23:-0.0736742 24:0.366063 25:0.159584 26:0.118599 27:-0.0312624 28:0.042834 29:0.0835618 30:-0.427691 31:0.116781 32:0.340618 33:-0.21541 34:0.258958 35:-0.0642396 36:-0.0632352 37:0.266031 38:0.0488211 39:-0.503096 
0 0 0 0.005590578905916081 0 1:0.522975 2:0.206991 3:0.213518 4:0.342375 5:0.015547 6:-0.67274 7:0.084686 8:-0.0463105 9:0.0855249 10:-0.0425601 11:-0.153394 12:0.105167 13:0.182147 14:-0.914787 15:-0.193338 16:0.163999 17:-0.355745 18:0.283561 19:0.441923 20:0.205381 21:0.435075 22:0.083182 23:-0.122218 24:0.431595 25:0.142807 26:-0.147856 27:-0.0231969 28:0.117332 29:-0.0167021 30:-0.442636 31:0.127794 32:0.337834 33:-0.347187 34:0.214815 35:-0.155488 36:-0.138814 37:0.00508479 38:-0.0768092 39:-0.546204 
0 0.8894876711811247 0 0.08686606099672875 0 1:0.505891 2:0.20501 3:0.199133 4:0.236407 5:0.107687 6:-0.458162 7:0.145125 8:-0.0631132 9:-0.0397017 10:0.00525902 11:0.0823183 12:0.175006 13:0.0136493 14:-0.922213 15:-0.123088 16:0.0982015 17:-0.548891 18:0.348988 19:0.526344 20:-0.0852366 21:0.556656 22:-0.0874755 23:-0.262316 24:0.237712 25:-0.0234737 26:-0.350677 27:-0.00265365 28:0.137654 29:-0.0880096 30:-0.209935 31:0.093392 32:0.147844 33:-0.398134 34:0.109332 35:-0.00777613 36:-0.156585 37:-0.202706 38:-0.102767 39:-0.250493 
0 0.4919990914632397 0 0 0 1:0.482908 2:0.320412 3:0.2002 4:0.0200232 5:0.360417 6:-0.284578 7:-0.157453 8:0.378959 9:-0.211469 10:-0.191915 11:0.0278733 12:0.109569 13:-0.195634 14:-0.882483 15:-0.123372 16:-0.00965194 17:-0.198282 18:-0.0381463 19:0.363521 20:0.0716343 21:-0.116423 22:-0.0809737 23:-0.0331758 24:-0.313109 25:-0.104953 26:0.179934 27:-0.0174121 28:-0.0511268 29:0.180115 30:-0.124041 31:-0.127003 32:0.133628 33:-0.0479313 34:-0.272816 35:0.0446832 36:0.105719 37:-0.0921167 38:-0.15494 39:-0.0188335 
0 0 0 0 0.01665590527344869 1:0.468382 2:0.313328 3:0.319924 4:-0.0790593 5:0.295255 6:-0.187237 7:-0.296962 8:0.0700668 9:-0.343042 10:-0.185002 11:-0.118486 12:-0.133768 13:-0.0729259 14:-0.890005 15:-0.193059 16:0.219601 17:-0.147587 18:0.0921845 19:0.348034 20:0.42228 21:-0.218418 22:0.088195 23:0.37252 24:0.0659248 25:0.0569818 26:0.316619 27:-0.0115911 28:-0.171562 29:0.0362403 30:0.159019 31:0.0469047 32:0.197944 33:0.35511 34:0.101688 35:0.213847 36:0.112218 37:0.00883609 38:0.176107 39:-0.200137 
0 0 0 0 0.2426545711090272 1:0.449906 2:0.230437 3:0.497271 4:-0.0127689 5:0.259383 6:-0.106206 7:-0.0140226 8:-0.0863083 9:-0.290796 10:-0.03465 11:-0.0972416 12:-0.0638126 13:-0.0005607 14:-0.895348 15:-0.36316 16:0.0728291 17:-0.02498 18:0.193716 19:0.600117 20:0.711156 21:0.131273 22:0.249947 23:0.107138 24:-0.326058 25:-0.0590111 26:0.0750516 27:-0.00652142 28:-0.186818 29:-0.262686 30:0.0622864 31:0.114497 32:0.332945 33:0.127873 34:0.388582 35:0.245119 36:-0.190479 37:-0.0828273 38:-0.0883786 39:-0.368654 
0 0 0 0.9343808341400093 0 1:0.442678 2:0.185226 3:0.479759 4:-0.0500389 5:0.185328 6:-0.0505638 7:0.128671 8:0.0318707 9:-0.157296 10:-0.00330282 11:-0.275469 12:-0.160525 13:0.0837294 14:-0.892145 15:-0.408333 16:-0.0523641 17:-0.0474017 18:0.286811 19:0.711624 20:0.747322 21:0.386347 22:0.350222 23:0.064941 24:-0.240663 25:-0.0688746 26:-0.0910814 27:-0.00288806 28:-0.135537 29:-0.253995 30:-0.00921535 31:0.100258 32:0.191137 33:-0.125648 34:0.25874 35:0.263246 36:-0.055493 37:0.222661 38:0.118416 39:-0.113411 
0.2269169409040773 0.2545838990776176 0.1121966868669603 0.0264640265104422 0.1278963403346617 1:0.437197 2:0.020218 3:0.412168 4:0.033794 5:0.42388 6:0.208657 7:0.406973 8:0.108019 9:-0.192805 10:-0.0779189 11:-0.425442 12:-0.288902 13:-0.160876 14:-0.889921 15:-0.433897 16:-0.126243 17:-0.0657087 18:0.288223 19:0.691205 20:0.674342 21:0.509245 22:0.41436 23:0.00520823 24:-0.171532 25:-0.149728 26:0.0178645 27:0.000687031 28:-0.00246676 29:-0.163849 30:-0.150936 31:-0.0990605 32:-0.122542 33:-0.394892 34:-0.00217298 35:0.27106 36:0.233831 37:0.539203 38:0.468021 39:0.310271 
0.1163053059762209 0 0 0 0 1:0.430859 2:-0.02618 3:0.363005 4:0.00278968 5:0.37371 6:0.256015 7:0.555384 8:0.304428 9:0.0412361 10:0.0568186 11:-0.291722 12:-0.215926 13:-0.181055 14:-0.885478 15:-0.44136 16:-0.166814 17:-0.116096 18:0.270253 19:0.511598 20:0.360074 21:0.403563 22:0.549771 23:0.158559 24:0.265099 25:0.202426 26:0.312386 27:0.00182534 28:0.120062 29:-0.054742 30:-0.198995 31:-0.152923 32:-0.228329 33:-0.428086 34:-0.185516 35:0.126 36:0.308101 37:0.531373 38:0.573394 39:0.497329 
0.0155418862952956 0 0 0 0 1:0.425414 2:-0.0982868 3:0.357401 4:0.0409252 5:0.376846 6:0.304482 7:0.542365 8:0.340758 9:0.0588099 10:-0.0480635 11:-0.272508 12:-0.301944 13:0.00144583 14:-0.877798 15:-0.326463 16:-0.174045 17:-0.274491 18:0.073764 19:0.21362 20:0.137494 21:0.276866 22:0.616562 23:0.455652 24:0.654643 25:0.556068 26:0.693859 27:0.0022932 28:0.248056 29:0.0662712 30:-0.186546 31:-0.13877 32:-0.117197 33:-0.24909 34:-0.194275 35:-0.0388155 36:0.290947 37:0.314086 38:0.490145 39:0.159875 
0.6147444907777264 0 0.1316896177835575 0 0.1025620320301446 1:0.428969 2:-0.174345 3:0.19498 4:-0.0999685 5:0.365665 6:0.215788 7:0.503347 8:0.341055 9:0.394983 10:0.380356 11:0.146785 12:0.197702 13:0.391045 14:-0.870236 15:-0.0653035 16:-0.064018 17:-0.316007 18:0.134748 19:0.35796 20:0.313704 21:0.325632 22:0.281846 23:0.40418 24:0.358183 25:0.482069 26:0.330708 27:-0.00200059 28:0.196782 29:0.246708 30:0.149984 31:-0.0165377 32:0.246812 33:0.12812 34:-0.134313 35:-0.300815 36:-0.320566 37:-0.477142 38:-0.280322 39:-0.761922 
0 0 0 0.1827964693731929 0 1:0.423868 2:-0.113579 3:0.195541 4:-0.123665 5:0.425199 6:0.325262 7:0.642632 8:0.54521 9:0.300721 10:0.284677 11:0.0785155 12:0.0919128 13:0.476049 14:-0.868191 15:-0.00594927 16:0.0296084 17:-0.201779 18:0.0758279 19:0.408197 20:0.406339 21:0.222858 22:-0.00477991 23:0.0466008 24:-0.061356 25:0.26918 26:-0.00524676 27:-0.00325387 28:0.053218 29:0.213856 30:0.227955 31:-0.0550276 32:0.111605 33:-0.0377595 34:-0.217253 35:-0.168505 36:-0.324845 37:-0.346429 38:-0.251239 39:-0.694826 
0 0 1.640485475427706 0 0 1:0.430496 2:-0.0877945 3:0.257871 4:-0.0950307 5:0.343016 6:0.375343 7:0.692828 8:0.406469 9:0.216091 10:0.244979 11:-0.0837472 12:0.275826 13:0.208209 14:-0.865657 15:-0.103995 16:0.0714383 17:-0.0206565 18:0.103821 19:0.212516 20:0.145198 21:0.0471465 22:0.0307171 23:-0.113495 24:-0.0589613 25:0.167774 26:-0.109897 27:-0.00771784 28:-0.178126 29:-0.0679313 30:0.0530435 31:-0.034726 32:-0.149797 33:-0.413354 34:-0.182917 35:0.166283 36:0.126355 37:0.281006 38:-0.0572872 39:-0.00303139 
0 0 0 0 1.107471546810652 1:0.431313 2:-0.0689981 3:0.329856 4:-0.0157786 5:0.464613 6:0.483087 7:0.840228 8:0.524289 9:0.329236 10:0.257424 11:-0.101763 12:0.109253 13:0.148629 14:-0.86808 15:-0.167798 16:0.0139845 17:-0.0277894 18:0.138804 19:0.0478912 20:-0.0431629 21:0.0432546 22:0.0568479 23:-0.0569512 24:0.170671 25:0.123039 26:0.0592435 27:-0.00916539 28:-0.195113 29:-0.191616 30:-0.107582 31:-0.105718 32:-0.105476 33:-0.398002 34:-0.193333 35:0.14743 36:0.259702 37:0.299204 38:0.00263093 39:0.158291 
0.1621796644936038 0 0 0 0 1:0.430184 2:-0.0708665 3:0.305778 4:-0.0396045 5:0.378986 6:0.312285 7:0.583582 8:0.496095 9:0.182743 10:0.21678 11:0.0719564 12:0.245536 13:0.193064 14:-0.870279 15:-0.24751 16:-0.080782 17:-0.111758 18:0.0964762 19:0.0662815 20:-0.186594 21:0.0639336 22:0.226396 23:0.175431 24:0.293077 25:0.0363921 26:0.101575 27:-0.0109838 28:-0.123508 29:-0.180189 30:-0.175834 31:-0.088143 32:0.151252 33:-0.0868573 34:-0.098829 35:0.119099 36:0.202857 37:0.00770348 38:-0.175136 39:0.0513064 
0 0 0.7679110136480781 0 0 1:0.421562 2:-0.166174 3:0.0868243 4:-0.187377 5:0.202809 6:0.158022 7:0.252118 8:0.281134 9:0.0680951 10:0.348728 11:0.174553 12:0.207348 13:0.234381 14:-0.869621 15:-0.0621354 16:0.0382137 17:-0.112289 18:0.239931 19:0.495808 20:0.447156 21:0.260048 22:0.193544 23:-0.100864 24:0.177787 25:0.221601 26:0.130401 27:-0.00561537 28:-0.139736 29:-0.0543864 30:-0.0755435 31:-0.114689 32:-0.0379995 33:-0.0218562 34:-0.0592039 35:0.139078 36:-0.144078 37:-0.222698 38:0.0293802 39:-0.139352 
0 0 1.194202538341349 0 0.4012538170197775 1:0.422909 2:-0.172102 3:0.103214 4:-0.189651 5:0.216788 6:0.212248 7:0.451114 8:0.298435 9:0.192074 10:0.262877 11:0.0580908 12:0.201439 13:0.101359 14:-0.871963 15:-0.221762 16:-0.0936166 17:-0.257017 18:-0.0693794 19:0.0293372 20:0.0875981 21:0.0879215 22:0.11956 23:-0.0586059 24:-0.143623 25:0.0200319 26:0.118491 27:-0.00743284 28:-0.119795 29:-0.0873981 30:-0.0340072 31:-0.16832 32:-0.214755 33:-0.413247 34:-0.244752 35:-0.0173962 36:0.172825 37:0.0174716 38:-0.0945135 39:0.0121364 
0 0 0 3.192818481855916 0 1:0.423802 2:-0.277473 3:-0.0439648 4:-0.270599 5:0.100094 6:0.00617658 7:0.158948 8:0.225078 9:0.191819 10:0.354573 11:0.0534563 12:0.090793 13:0.272141 14:-0.870237 15:-0.152716 16:0.0240349 17:-0.0141901 18:0.208908 19:0.226954 20:0.0318719 21:-0.0523739 22:0.137191 23:0.0950172 24:0.138862 25:-0.0219453 26:0.162822 27:-0.00790035 28:0.0675669 29:0.19411 30:0.126249 31:0.167395 32:0.43668 33:0.240788 34:0.0450056 35:0.105891 36:-0.145151 37:-0.0329096 38:0.0244262 39:-0.380562 
0 0 0 1.442382614049097 0 1:0.419326 2:-0.251777 3:0.0567991 4:-0.220945 5:0.178269 6:0.0571673 7:0.282409 8:0.419575 9:0.471005 10:0.225588 11:0.0277822 12:0.229449 13:0.231698 14:-0.872281 15:-0.0356632 16:0.0194766 17:-0.0933886 18:0.180834 19:0.146598 20:0.159086 21:-0.0493498 22:0.119491 23:-0.206897 24:-0.456472 25:-0.027258 26:0.0441554 27:-0.00326717 28:0.0651874 29:0.0176934 30:-0.0189036 31:0.000825954 32:0.22118 33:-0.00340277 34:-0.260309 35:-0.285501 36:-0.0109856 37:-0.226197 38:-0.166168 39:-0.324245 
0 2.45220265478717 0 1.640604986423581 0.01696777855662107 1:0.421062 2:-0.205032 3:0.116785 4:-0.197894 5:0.165177 6:0.0271044 7:0.265266 8:0.308781 9:0.400128 10:0.194357 11:-0.201785 12:0.202831 13:0.234489 14:-0.869257 15:0.000568645 16:0.00657284 17:-0.122737 18:0.150866 19:0.200658 20:0.0766692 21:-0.198957 22:-0.13065 23:-0.20508 24:-0.555734 25:-0.141062 26:-0.0239084 27:-0.00518481 28:-0.0606023 29:-0.0457747 30:-0.0320949 31:0.0117316 32:0.249197 33:-0.00262306 34:-0.0439783 35:-0.190018 36:0.107959 37:0.244858 38:0.000611618 39:-0.242049 
0 1.424615695828054 0.07902084086349517 0 0.4333260594394451 1:0.420265 2:-0.103092 3:0.103453 4:-0.201931 5:0.166803 6:0.0745375 7:0.394342 8:0.197235 9:0.157157 10:0.140175 11:-0.347748 12:0.0685388 13:0.0675486 14:-0.868457 15:-0.0294309 16:0.0127352 17:-0.127753 18:0.160658 19:0.331315 20:0.188093 21:-0.149223 22:-0.211019 23:-0.0735839 24:-0.259696 25:-0.146035 26:-0.183406 27:-0.00676048 28:-0.234912 29:-0.0785739 30:-0.00604137 31:0.0233242 32:0.162476 33:-0.0581618 34:0.221618 35:0.110934 36:0.224919 37:0.630067 38:0.232594 39:0.0138042 
0.1367450543388581 0 0 0 0 1:0.422539 2:-0.143664 3:0.0931944 4:-0.208363 5:0.175967 6:0.120888 7:0.332692 8:0.108151 9:0.0975471 10:0.203615 11:-0.318036 12:-0.0477566 13:0.0253447 14:-0.871763 15:-0.210393 16:-0.0965173 17:-0.143025 18:0.234407 19:0.33447 20:0.17247 21:0.183675 22:-0.0243903 23:-0.0133153 24:0.311003 25:0.0644832 26:-0.000859686 27:-0.00838075 28:-0.250733 29:-0.0516923 30:0.0416292 31:0.0447497 32:0.0607343 33:-0.0162522 34:0.344381 35:0.263922 36:0.200937 37:0.580104 38:0.294013 39:0.219058 
0 1.195612219062745 0 2.61540522666315 0 1:0.422033 2:-0.290694 3:-0.109231 4:-0.279557 5:0.218723 6:0.117039 7:0.402742 8:0.274345 9:0.291097 10:0.464998 11:-0.0118535 12:0.145839 13:0.298215 14:-0.867647 15:-0.161591 16:-0.0251204 17:-0.271402 18:0.015662 19:0.0729209 20:-0.0586238 21:0.232205 22:0.311271 23:-0.123544 24:0.00529975 25:0.0381811 26:0.25289 27:-0.00621544 28:-0.00385361 29:0.233345 30:0.161978 31:0.0281431 32:0.063933 33:0.0365167 34:0.108576 35:-0.0684007 36:-0.271906 37:0.158434 38:-0.0104726 39:-0.16391 
0 0.09252426078560895 0 3.128500096034038 0 1:0.428682 2:-0.286159 3:0.0602683 4:-0.192578 5:0.287126 6:0.225694 7:0.487613 8:0.288162 9:0.0630622 10:0.336411 11:-0.142612 12:0.0683513 13:0.231238 14:-0.869364 15:-0.122279 16:-0.00725089 17:-0.033563 18:0.258455 19:0.359387 20:0.0529123 21:0.0297556 22:0.0576476 23:0.00615159 24:-0.267868 25:0.122614 26:0.0973534 27:-0.00983833 28:0.151366 29:0.0955943 30:-0.0335471 31:-0.154471 32:-0.150023 33:-0.409139 34:-0.0595107 35:0.127076 36:-0.208223 37:0.011761 38:0.0118082 39:-0.132554 
0 0 0 0.809059032388578 0 1:0.422474 2:-0.176058 3:0.134577 4:-0.135289 5:0.322922 6:0.213525 7:0.3197 8:0.255597 9:0.076949 10:0.158883 11:-0.205925 12:0.116322 13:0.223675 14:-0.858169 15:0.286509 16:0.356859 17:0.0214476 18:-0.0588852 19:-0.109385 20:-0.427579 21:-0.47222 22:-0.274796 23:-0.436145 24:-0.245962 25:-0.187455 26:0.0208854 27:0.00393146 28:0.104526 29:0.195571 30:0.039738 31:-0.183588 32:-0.00854305 33:-0.149185 34:-0.369728 35:-0.0569591 36:0.117494 37:0.145123 38:-0.0513835 39:-0.219565 
0 0 0 0.7523777336331627 0 1:0.429453 2:0.0811692 3:0.407992 4:-0.0761546 5:0.206805 6:0.00925689 7:0.110594 8:0.131665 9:-0.122256 10:0.0180754 11:-0.273352 12:-0.0171031 13:0.0638786 14:-0.850972 15:0.251831 16:0.362592 17:0.0488119 18:-0.0864511 19:-0.123711 20:-0.455865 21:-0.569437 22:-0.304177 23:-0.365008 24:-0.268084 25:-0.242649 26:-0.11748 27:0.000426757 28:-0.200411 29:-0.166425 30:0.0290163 31:0.0142184 32:0.144851 33:0.0677904 34:-0.0946702 35:0.245016 36:0.359802 37:0.188864 38:0.165523 39:-0.0730342 
0 0 0 1.220151660849062 0 1:0.444084 2:0.142285 3:0.499527 4:-0.00797449 5:0.142301 6:-0.0610889 7:-0.203301 8:-0.299271 9:-0.266788 10:-0.0610521 11:-0.321921 12:-0.0634384 13:0.079741 14:-0.854063 15:0.111968 16:0.233384 17:-0.0242548 18:-0.0418081 19:0.0124773 20:-0.217 21:-0.296799 22:0.0103683 23:0.00802296 24:0.142816 25:0.0594311 26:-0.0046093 27:-0.00622954 28:-0.315952 29:-0.377339 30:0.0502893 31:0.158803 32:0.21304 33:0.308623 34:0.30535 35:0.453179 36:0.418312 37:0.159973 38:0.289678 39:0.0359437 
0 1.562888656391632 1.175712440802359 3.364084595560149 0 1:0.440661 2:0.143502 3:0.484162 4:-0.0470027 5:0.168584 6:0.0295269 7:0.00452879 8:-0.0633492 9:0.00468919 10:0.17826 11:-0.0596275 12:0.132944 13:0.114776 14:-0.855338 15:-0.09887 16:-0.0994316 17:0.115158 18:0.244019 19:0.0566405 20:0.12989 21:0.13956 22:0.322454 23:0.118682 24:-0.101527 25:0.0830181 26:0.196202 27:0.00715376 28:-0.0410881 29:-0.385288 30:-0.0702091 31:0.00254104 32:0.111483 33:0.218772 34:0.27299 35:0.161544 36:0.0389229 37:-0.0443396 38:0.174043 39:-0.0510767 
0 0.6063764370668937 0 0 0 1:0.462742 2:0.179177 3:0.407886 4:0.19388 5:0.248833 6:-0.173227 7:-0.185174 8:-0.194198 9:-0.0542658 10:0.0861623 11:-0.385355 12:-0.0208649 13:0.142364 14:-0.81708 15:0.044314 16:-0.370986 17:-0.176674 18:0.0170617 19:0.0306887 20:0.217107 21:0.269642 22:0.206902 23:0.00951454 24:0.0291402 25:0.248898 26:0.0724627 27:0.0333156 28:0.0633593 29:-0.386681 30:-0.217917 31:-0.417645 32:-0.195286 33:-0.109734 34:0.0925588 35:0.189417 36:-0.108486 37:0.316972 38:0.458202 39:-0.362107 
0 0.1265459811649132 0.3866756290639199 0 0 1:0.469976 2:0.20827 3:0.336784 4:0.133785 5:0.239474 6:-0.109046 7:-0.0631547 8:-0.155139 9:0.00300608 10:0.141896 11:-0.27789 12:0.0737195 13:0.0872689 14:-0.787681 15:0.0497124 16:-0.53855 17:-0.239575 18:-0.24192 19:-0.217648 20:0.191747 21:0.467419 22:0.469958 23:0.0156159 24:0.340558 25:0.591599 26:-0.0878801 27:0.0218193 28:-0.0508137 29:-0.170722 30:0.0179189 31:-0.364289 32:-0.220435 33:-0.212445 34:-0.00059694 35:0.207128 36:-0.110627 37:0.268958 38:0.382555 39:-0.253914 
0.3914395784213038 0.5886658666441542 1.859443185814182 0.3206099922166391 0.7085958747827014 1:0.521382 2:0.351673 3:-0.096062 4:-0.0792574 5:0.0608386 6:-0.224464 7:0.0269859 8:0.0675645 9:0.0963131 10:0.132768 11:-0.0803945 12:0.262988 13:0.0403879 14:-0.774825 15:-0.0108668 16:-0.562441 17:-0.128317 18:-0.336849 19:-0.436009 20:-0.025712 21:0.330258 22:0.521113 23:-0.18153 24:0.336475 25:0.579966 26:-0.119874 27:-0.0142974 28:-0.198772 29:0.285533 30:0.310024 31:-0.132747 32:-0.0185185 33:-0.193883 34:-0.260058 35:0.0528497 36:-0.100431 37:0.0543564 38:0.0863372 39:-0.000588822 
0.04869866507906667 0.2855195420496804 1.444530854996854 0 0.4682041771409718 1:0.57326 2:0.277218 3:-0.179642 4:0.269588 5:-0.157879 6:-0.582794 7:-0.182075 8:0.0934403 9:0.381578 10:0.0494233 11:-0.00605978 12:0.571962 13:0.0476098 14:-0.861662 15:-0.224409 16:0.0699633 17:0.0776292 18:-0.0801734 19:0.240132 20:0.294258 21:0.0150482 22:0.0394294 23:-0.0454991 24:0.149386 25:0.172896 26:0.352957 27:-0.0454643 28:-0.091767 29:0.338462 30:-0.152079 31:0.127229 32:0.58647 33:0.260286 34:-0.277202 35:-0.235153 36:0.284824 37:-0.130179 38:-0.459812 39:-0.108005 
0 0.001716194719454483 0 0 0 1:0.576725 2:0.199407 3:-0.137314 4:0.363802 5:-0.264449 6:-0.616421 7:-0.104478 8:-0.0130478 9:0.329065 10:0.00323549 11:-0.0382213 12:0.500557 13:0.0878596 14:-0.881729 15:-0.231841 16:0.117057 17:-0.0557002 18:0.00421064 19:0.439756 20:0.421379 21:-0.109769 22:-0.0532764 23:0.174901 24:-0.105941 25:-0.240492 26:0.0766769 27:-0.027275 28:0.0231294 29:0.18653 30:-0.12103 31:0.0642807 32:0.12804 33:0.0795092 34:-0.029579 35:-0.00416577 36:0.0235823 37:-0.0421056 38:-0.339436 39:-0.419009 
0 0 2.221440870008261 0 1.2583651604242 1:0.570521 2:0.175021 3:-0.19329 4:0.270163 5:-0.265093 6:-0.400205 7:-0.0465234 8:-0.175095 9:0.170803 10:0.11593 11:-0.0838438 12:0.438244 13:0.0691464 14:-0.893284 15:-0.209691 16:0.219585 17:-0.0601401 18:0.0489082 19:0.429119 20:0.509697 21:0.0328476 22:-0.0400285 23:0.164746 24:-0.0751462 25:-0.325621 26:-0.0511016 27:-0.0269869 28:0.0577954 29:0.205775 30:-0.0822853 31:0.042485 32:-0.0438859 33:0.000210236 34:0.15459 35:0.0356312 36:-0.293065 37:0.115076 38:-0.100176 39:-0.305974 
0 0 0.07266543745372579 0 0 1:0.556683 2:0.156983 3:0.0336184 4:0.369621 5:-0.264253 6:-0.452475 7:0.161143 8:-0.158462 9:0.156843 10:0.146369 11:-0.108464 12:0.220218 13:0.00177397 14:-0.906431 15:-0.173928 16:0.234914 17:-0.127886 18:0.0956038 19:0.295509 20:0.462214 21:0.0401508 22:-0.0917338 23:-0.118655 24:-0.0175126 25:-0.37091 26:-0.0930485 27:-0.023749 28:0.0842799 29:0.0427141 30:-0.154199 31:0.106241 32:-0.0137385 33:-0.163912 34:0.253925 35:0.0724287 36:-0.36463 37:0.259213 38:0.25272 39:-0.148742 
0 0 1.498867268101727 0 0.1137185027972603 1:0.532082 2:0.154679 3:0.116153 4:0.324919 5:-0.268749 6:-0.461496 7:0.233315 8:-0.10328 9:0.0673651 10:-0.0704051 11:-0.0497303 12:0.108402 13:-0.107026 14:-0.918851 15:-0.0863343 16:0.126222 17:-0.308498 18:0.29916 19:0.329795 20:0.209804 21:0.450045 22:-0.00646707 23:-0.375522 24:0.329441 25:0.0514012 26:0.0217747 27:-0.0122458 28:0.127404 29:-0.169396 30:-0.330457 31:0.423082 32:0.246435 33:-0.441404 34:0.26052 35:0.0973156 36:0.159287 37:0.204711 38:0.328684 39:-0.0327736 
0.07778004991106478 0 0 0 0 1:0.515632 2:0.15773 3:0.212909 4:0.296861 5:-0.294877 6:-0.451508 7:0.294845 8:0.0758136 9:-0.0520198 10:-0.264835 11:0.0259055 12:0.176102 13:-0.114133 14:-0.923637 15:-0.0354431 16:0.0749614 17:-0.446786 18:0.575377 19:0.42238 20:-0.0316689 21:0.5482 22:-0.0174364 23:-0.202381 24:0.367268 25:0.0785268 26:0.0362448 27:-0.000956765 28:0.112869 29:-0.234017 30:-0.303658 31:0.440006 32:0.234074 33:-0.483776 34:0.00812776 35:0.084319 36:0.363379 37:-0.0350977 38:0.011359 39:-0.109683 
0 0 1.018388801947453 0 0.5382811554657881 1:0.495333 2:0.204881 3:0.206286 4:0.219801 5:-0.0396876 6:-0.336481 7:0.237512 8:0.21768 9:0.0411864 10:-0.113097 11:0.164346 12:0.187153 13:-0.115941 14:-0.916096 15:0.0322938 16:0.0144001 17:-0.594007 18:0.844485 19:0.49756 20:-0.19158 21:0.622186 22:-0.0266785 23:-0.00501915 24:0.274926 25:-0.00935987 26:0.0198951 27:0.0126584 28:0.0385537 29:-0.177884 30:-0.0830029 31:0.162994 32:0.0188139 33:-0.328136 34:-0.228708 35:0.0544552 36:0.20215 37:-0.234402 38:-0.218349 39:-0.152012 
0.2203907174192312 0 1.046564238055153 0 0.3564435149788158 1:0.477505 2:0.34101 3:0.1576 4:-0.070189 5:0.389585 6:-0.190685 7:-0.066386 8:0.492227 9:-0.116469 10:-0.113506 11:0.162874 12:0.0416095 13:-0.191475 14:-0.877559 15:-0.0243409 16:-0.112341 17:-0.405939 18:0.600453 19:0.177759 20:-0.247932 21:0.207562 22:-0.0226811 23:-0.16206 24:-0.154479 25:-0.287313 26:-0.003467 27:0.015212 28:-0.138512 29:0.0409794 30:0.352738 31:-0.422077 32:-0.173607 33:0.260301 34:-0.409298 35:0.135197 36:0.00525207 37:-0.119988 38:0.215617 39:0.0491073 
0 0.5134492951163891 0 0 0 1:0.481826 2:0.329567 3:0.142092 4:-0.0267708 5:0.520657 6:-0.374492 7:-0.0426599 8:0.374507 9:-0.0952735 10:-0.175801 11:0.066323 12:0.0501457 13:-0.187884 14:-0.881001 15:-0.18553 16:0.0787506 17:-0.141284 18:0.11847 19:0.219639 20:0.270555 21:0.0596134 22:0.0263628 23:0.00371025 24:-0.0516001 25:0.217644 26:0.315806 27:-0.0196047 28:-0.142762 29:0.192885 30:0.0348869 31:-0.393042 32:0.38592 33:-0.108767 34:-0.249238 35:-0.0968793 36:0.000150557 37:-0.063405 38:-0.00847101 39:-0.0593179 
0.7553085424684718 0.7678862254602058 0 0 0.411916488810552 1:0.478708 2:0.312093 3:0.176705 4:-0.0294803 5:0.444928 6:-0.350393 7:-0.00804981 8:0.443982 9:-0.169866 10:-0.163775 11:0.0574839 12:0.101435 13:-0.0492639 14:-0.890378 15:-0.241233 16:0.110614 17:-0.151132 18:-0.072559 19:0.384795 20:0.0788106 21:-0.0860844 22:-0.0921977 23:-0.125561 24:-0.195669 25:0.0157802 26:0.22829 27:-0.0169512 28:-0.0822971 29:0.154157 30:-0.0555312 31:-0.307983 32:0.420893 33:-0.19411 34:-0.294873 35:-0.0218659 36:0.00502591 37:-0.181711 38:-0.13089 39:-0.170112 
0.6028718450184064 0.952563094991469 0.3314193941418687 0 0.3013975154057422 1:0.460074 2:0.200251 3:0.270124 4:-0.0346324 5:0.289679 6:-0.191173 7:-0.202562 8:0.180346 9:-0.377318 10:-0.343216 11:-0.0718108 12:-0.129533 13:-0.113824 14:-0.892003 15:-0.231243 16:0.189016 17:-0.213806 18:-0.211386 19:0.600438 20:0.0443769 21:-0.260941 22:0.00011535 23:-0.0520856 24:-0.478836 25:0.00245689 26:0.197926 27:-0.00453874 28:0.0316487 29:0.0516508 30:0.0503165 31:0.117118 32:0.159853 33:0.189929 34:0.0814849 35:0.366443 36:0.358813 37:0.0239943 38:0.100701 39:-0.126582 
0.08870442141442611 0 1.124250042368359 0.6469212350228907 0.06603566559434093 1:0.455684 2:0.191452 3:0.381932 4:-0.0100247 5:0.260603 6:-0.0473483 7:-0.128346 8:0.109753 9:-0.358306 10:-0.21821 11:-0.206937 12:-0.025343 13:0.0092091 14:-0.887356 15:-0.189192 16:0.200578 17:-0.125367 18:-0.02044 19:0.566164 20:0.255944 21:-0.0210654 22:0.199162 23:0.192063 24:-0.395717 25:0.108496 26:0.26706 27:-0.00493808 28:0.0162578 29:-0.0749026 30:0.0758028 31:0.262577 32:0.0796134 33:0.352713 34:0.277554 35:0.465278 36:0.416863 37:0.281831 38:0.0114644 39:-0.275747 
0.7239651831705569 1.812956045082403 0 0 0.3737855714354827 1:0.451064 2:0.188382 3:0.405975 4:-0.119189 5:0.112448 6:-0.0267208 7:-0.12776 8:0.035656 9:-0.289685 10:-0.227403 11:-0.365736 12:0.00660716 13:0.000247184 14:-0.886865 15:-0.196066 16:0.136036 17:-0.0557854 18:0.189207 19:0.520926 20:0.446514 21:0.154753 22:0.416535 23:0.37095 24:-0.196959 25:-0.0011616 26:0.195877 27:-0.00695097 28:-0.0525048 29:-0.162375 30:0.139113 31:0.300678 32:0.0738347 33:0.333816 34:0.237001 35:0.308284 36:0.30692 37:0.43476 38:-0.141675 39:-0.364997 
0 0.1328880252331812 0.07756776740990921 0 0 1:0.446059 2:0.156154 3:0.463135 4:0.0330013 5:0.300956 6:0.0196568 7:0.0123268 8:0.169748 9:-0.173257 10:-0.0873986 11:-0.315925 12:-0.0739026 13:0.03285 14:-0.890385 15:-0.227702 16:0.029771 17:-0.0611246 18:0.279027 19:0.558833 20:0.645812 21:0.334986 22:0.549534 23:0.437919 24:0.137063 25:-0.167805 26:-0.0651334 27:-0.00752237 28:-0.0891109 29:-0.21118 30:0.0184648 31:0.109611 32:0.0692333 33:0.125697 34:0.00906713 35:0.0954477 36:0.134503 37:0.3797 38:-0.0988272 39:-0.322576 
1.244037280604602 0 1.427737021094916 0 0.1868450000312978 1:0.430388 2:0.0835149 3:0.412614 4:-0.0019078 5:0.336259 6:0.278551 7:0.449556 8:0.338123 9:0.156779 10:0.156405 11:-0.137814 12:-0.215745 13:-0.223661 14:-0.88729 15:-0.284505 16:-0.0982683 17:-0.126278 18:0.209527 19:0.489293 20:0.508361 21:0.125019 22:0.305878 23:0.377841 24:0.230159 25:-0.0642349 26:0.0266642 27:0.00165571 28:-0.00380038 29:-0.0830153 30:-0.0768921 31:-0.14411 32:-0.0923214 33:-0.287895 34:-0.0809977 35:-0.101602 36:-0.00256976 37:0.00865756 38:0.397351 39:0.322538 
0.5790789809505651 0.1040239255902982 0 0 0 1:0.426263 2:-0.0137582 3:0.359718 4:0.0345069 5:0.335033 6:0.266655 7:0.490816 8:0.395174 9:0.217787 10:0.449816 11:-0.0594043 12:-0.146949 13:0.164287 14:-0.865543 15:-0.139452 16:-0.0861638 17:-0.22028 18:0.180103 19:0.24986 20:0.203888 21:0.464802 22:0.31125 23:0.181359 24:0.203789 25:0.369484 26:0.499172 27:-0.00191034 28:0.093206 29:0.0706685 30:-0.11528 31:-0.0452332 32:0.0719649 33:-0.173777 34:-0.217743 35:-0.132468 36:-0.420995 37:-0.00830924 38:0.0583306 39:-0.449416 
0.04709298941214543 1.246719591822691 0.9349795361240892 0.7993500600011161 0 1:0.429072 2:-0.0444204 3:0.259203 4:0.0197808 5:0.454769 6:0.324902 7:0.594111 8:0.533806 9:0.229859 10:0.306017 11:-0.139224 12:-0.00554727 13:0.199701 14:-0.866108 15:-0.110981 16:-0.0477395 17:-0.254352 18:0.148645 19:0.252772 20:0.166002 21:0.227029 22:0.0818278 23:-0.139372 24:0.125695 25:0.2657 26:0.133647 27:-0.00831631 28:0.0423168 29:0.0775154 30:-0.125547 31:-0.162964 32:0.0533869 33:-0.151426 34:-0.434475 35:-0.154542 36:-0.299985 37:-0.0286945 38:-0.150402 39:-0.620218 
0.192353219651155 0.780125585773116 1.323300745599043 0 0 1:0.434114 2:0.00623502 3:0.311184 4:-0.0159402 5:0.457529 6:0.282158 7:0.425359 8:0.491727 9:0.180334 10:0.286452 11:0.0161439 12:0.00479652 13:0.236433 14:-0.869734 15:-0.115675 16:-0.0500704 17:-0.281471 18:0.118375 19:0.269353 20:0.107116 21:-0.0561638 22:-0.0566612 23:-0.303259 24:0.0487217 25:0.126672 26:-0.0941254 27:-0.0121511 28:-0.0447159 29:0.048992 30:-0.0582115 31:-0.168552 32:0.0113202 33:-0.0759201 34:-0.406461 35:-0.0464492 36:-0.075652 37:-0.109151 38:-0.118003 39:-0.415748 
0.5099499068879935 0 1.555822739544388 0 0 1:0.429744 2:0.0074912 3:0.304556 4:-0.0729895 5:0.38021 6:0.339772 7:0.521868 8:0.402221 9:0.109086 10:0.248127 11:0.00425334 12:-0.0238592 13:-0.0179887 14:-0.873994 15:-0.133625 16:-0.0434518 17:-0.340016 18:-0.0530333 19:0.149994 20:0.0711324 21:-0.155513 22:-0.0160595 23:-0.185439 24:-0.0123169 25:0.0352196 26:-0.111181 27:-0.0105557 28:-0.0457868 29:0.0896546 30:0.0737295 31:-0.043379 32:0.03455 33:-0.0340027 34:-0.174929 35:0.101919 36:0.152765 37:-0.0334815 38:0.064923 39:-0.0191127 
0.05900916757192867 0 2.417835214400741 0 0 1:0.427794 2:-0.0219077 3:0.266124 4:-0.0764154 5:0.380226 6:0.331372 7:0.496436 8:0.258734 9:0.0224801 10:0.155035 11:-0.084877 12:-0.0642136 13:-0.00740995 14:-0.876354 15:-0.185668 16:-0.0487775 17:-0.286531 18:0.00335006 19:0.112212 20:0.173134 21:-0.0400247 22:0.136257 23:-0.0491344 24:-0.0954419 25:0.168062 26:0.0486974 27:-0.0078726 28:-0.000465855 29:0.157368 30:0.229651 31:0.121344 32:0.136208 33:-0.0212467 34:0.0270226 35:0.134821 36:0.184753 37:0.0723083 38:0.204297 39:0.126244 
1.549060436935362 1.745991691076499 0.8454004572570345 4.103443854976049 0 1:0.42729 2:-0.0380514 3:0.221879 4:-0.171709 5:0.295724 6:0.23329 7:0.477306 8:0.313548 9:0.113825 10:0.178006 11:-0.106093 12:-0.00976441 13:0.0182125 14:-0.873123 15:-0.135492 16:0.0567934 17:-0.112211 18:0.197604 19:0.193928 20:0.145361 21:0.00981815 22:0.0840126 23:-0.041072 24:0.0164883 25:0.261527 26:0.2506 27:-0.00544414 28:0.0569887 29:0.161491 30:0.32647 31:0.217733 32:0.241943 33:-0.037775 34:0.0553177 35:0.103738 36:0.0477111 37:0.0773032 38:0.103814 39:0.0873493 
0.8870013210789431 0 0 0 0 1:0.426777 2:0.0125093 3:0.403451 4:-0.0175304 5:0.488422 6:0.377501 7:0.538403 8:0.240854 9:-0.0303652 10:0.152127 11:-0.00916068 12:0.122134 13:0.0953286 14:-0.871784 15:-0.0514637 16:0.096163 17:0.113651 18:0.332034 19:0.361622 20:0.106954 21:0.0612021 22:0.122928 23:-0.163388 24:-0.0248198 25:0.064661 26:0.209697 27:-0.00421826 28:-0.098422 29:-0.168463 30:-0.0795329 31:-0.14074 32:0.136312 33:-0.00313005 34:0.0768052 35:0.262582 36:0.195447 37:0.149647 38:-0.127547 39:-0.00807342 
0.9796506718101702 0 0 2.471729794495511 0 1:0.426881 2:0.0417493 3:0.347689 4:0.0205993 5:0.466836 6:0.320698 7:0.482039 8:0.311647 9:0.22289 10:0.104082 11:-0.143577 12:-0.0194985 13:0.180897 14:-0.868107 15:-0.262349 16:-0.172811 17:-0.227926 18:0.0482337 19:0.253549 20:0.182718 21:0.274782 22:0.411475 23:0.263888 24:0.320211 25:0.106463 26:0.407183 27:-0.00882628 28:-0.165704 29:-0.140155 30:-0.279708 31:-0.244587 32:-0.0350183 33:-0.10626 34:-0.0854439 35:0.0317497 36:0.296487 37:0.171131 38:0.240832 39:-0.272225 
0 0.5775140254874157 0 0 0 1:0.430339 2:-0.0980145 3:0.24155 4:-0.027998 5:0.488323 6:0.47032 7:0.629607 8:0.447931 9:0.368704 10:0.243338 11:0.0812816 12:0.0200456 13:0.332077 14:-0.87061 15:-0.287527 16:-0.165182 17:-0.309561 18:-0.012337 19:0.212714 20:0.120378 21:0.145488 22:0.260703 23:0.285288 24:0.307231 25:0.172795 26:0.16132 27:-0.0119514 28:0.0108885 29:0.104258 30:-0.0746058 31:-0.156787 32:-0.105727 33:-0.208014 34:-0.225337 35:-0.125852 36:0.0866752 37:-0.0635622 38:0.168117 39:-0.498215 
0.7367739218390996 0 0 0 0 1:0.428386 2:-0.12619 3:0.196185 4:-0.0814883 5:0.445988 6:0.400558 7:0.519435 8:0.399189 9:0.239135 10:0.376177 11:0.270247 12:0.229116 13:0.349685 14:-0.876276 15:-0.262724 16:-0.11188 17:-0.272637 18:-0.00198418 19:0.160297 20:-0.000297125 21:0.061255 22:0.090891 23:0.189033 24:0.170413 25:0.278153 26:-0.0192593 27:-0.0105775 28:0.145665 29:0.272696 30:0.135915 31:-0.0479751 32:-0.055883 33:-0.142347 34:-0.197262 35:-0.0833479 36:-0.119104 37:-0.201285 38:-0.036731 39:-0.405673 
0.1246609821824709 0 0 0 0 1:0.427241 2:-0.124645 3:0.252865 4:-0.0820311 5:0.359065 6:0.252445 7:0.373679 8:0.325869 9:0.337373 10:0.38723 11:-0.0331616 12:-0.21747 13:-0.0417433 14:-0.885363 15:-0.152157 16:-0.068441 17:-0.222799 18:0.0739224 19:0.207743 20:0.126906 21:0.0755516 22:0.574399 23:0.228705 24:0.0079862 25:-0.152377 26:0.209057 27:-0.0154281 28:0.0353973 29:0.0232033 30:-0.00577474 31:-0.0911664 32:0.0444088 33:0.0105946 34:-0.0133312 35:0.224093 36:0.121199 37:0.184878 38:0.327198 39:0.239307 
0 1.850485213027046 0 8.883951087848951 0 1:0.424671 2:-0.246874 3:0.0593016 4:-0.211627 5:0.127973 6:0.0202488 7:0.258143 8:0.295144 9:0.131131 10:-0.0148385 11:-0.19791 12:0.11921 13:0.164984 14:-0.871299 15:-0.0985174 16:-0.054772 17:-0.135351 18:0.168781 19:0.219742 20:0.0718463 21:0.13775 22:0.105507 23:-0.124221 24:0.190958 25:-0.137659 26:0.253734 27:-0.00626686 28:-0.0217034 29:-0.0509066 30:-0.0887993 31:0.0060072 32:0.238186 33:0.105883 34:-0.0102237 35:0.143522 36:0.319614 37:0.057002 38:-0.00567627 39:-0.0574425 
0 0 0 2.600748874844431 0 1:0.418583 2:-0.281193 3:-0.0119591 4:-0.222231 5:0.223775 6:0.111374 7:0.217935 8:0.279063 9:-0.00322322 10:0.193753 11:0.0524265 12:0.157848 13:0.320315 14:-0.867708 15:-0.0436192 16:-7.88985e-05 17:-0.0664648 18:0.0695563 19:0.250584 20:0.339717 21:0.186985 22:0.189598 23:-0.195469 24:-0.255621 25:0.115785 26:0.163498 27:-0.0055472 28:-0.00817435 29:0.0484024 30:-0.0289658 31:-0.113938 32:0.0908568 33:0.00222462 34:-0.0231854 35:0.191234 36:-0.0867487 37:-0.0862272 38:-0.0298565 39:-0.281982 
0 0.978412001600601 0 0 0 1:0.425383 2:-0.273185 3:0.018882 4:-0.242658 5:0.191662 6:0.208873 7:0.414328 8:0.275713 9:0.0483878 10:0.310291 11:-0.170772 12:-0.0115344 13:0.244442 14:-0.870519 15:-0.226776 16:-0.111308 17:-0.140349 18:0.0438256 19:0.167572 20:0.154258 21:-0.0397642 22:0.0288305 23:-0.0596068 24:-0.0720051 25:-0.151809 26:0.0671934 27:-0.0107395 28:0.0750303 29:0.119282 30:0.0857131 31:0.0568708 32:0.121231 33:0.00605208 34:0.0953048 35:0.165241 36:-0.210463 37:0.0152098 38:0.0256369 39:-0.298209 
0.1127226691196129 0.3108053295936087 0 0.5720872585722395 0 1:0.420211 2:-0.322523 3:-0.00992817 4:-0.199033 5:0.238752 6:0.156911 7:0.492429 8:0.276601 9:0.0770163 10:0.0747948 11:-0.16317 12:-0.132731 13:0.100215 14:-0.869557 15:0.188443 16:0.333067 17:0.0176836 18:0.195535 19:0.109441 20:-0.179307 21:-0.0435615 22:-0.0652379 23:0.0142737 24:-0.273662 25:0.0743136 26:0.00426706 27:0.00588297 28:0.365363 29:0.413663 30:0.163049 31:-0.141065 32:-0.130002 33:-0.624428 34:-0.451223 35:-0.111706 36:0.292658 37:0.0424607 38:0.375732 39:-0.0418901 
0.9768584324176439 1.005409421150005 0 0.6648383775126135 0 1:0.420274 2:-0.211847 3:0.113618 4:-0.186325 5:0.30269 6:0.227291 7:0.561655 8:0.39908 9:0.0803881 10:0.216538 11:-0.260435 12:-0.200235 13:-0.021285 14:-0.86201 15:0.299768 16:0.433238 17:0.0439382 18:0.0724716 19:0.0111558 20:-0.515597 21:-0.315388 22:-0.142666 23:0.0564837 24:-0.215567 25:0.170349 26:-0.0134213 27:0.00983206 28:0.13668 29:0.0687359 30:0.155278 31:-0.203661 32:-0.160849 33:-0.455625 34:-0.47471 35:-0.100223 36:0.121935 37:0.160582 38:0.264666 39:0.059698 
0 1.072786352816115 0 0 0 1:0.429673 2:0.0776585 3:0.461121 4:-0.108737 5:0.145111 6:-0.0488432 7:-0.0978404 8:-0.0760093 9:-0.217748 10:0.0835716 11:-0.408002 12:-0.0602237 13:-0.0466788 14:-0.846614 15:0.30605 16:0.373017 17:0.173483 18:0.014513 19:-0.157361 20:-0.616784 21:-0.464604 22:-0.147521 23:0.16787 24:-0.0473632 25:0.246528 26:0.098808 27:0.00882144 28:-0.218012 29:-0.413832 30:0.110035 31:-0.0882512 32:-0.0106585 33:0.120477 34:-0.0974727 35:0.130397 36:-0.00840481 37:0.214711 38:0.0465266 39:0.0714165 
0 0.30543979185793 0 0 0 1:0.433768 2:0.0835747 3:0.502798 4:-0.035797 5:0.197381 6:-0.00424401 7:-0.206015 8:-0.126723 9:-0.201471 10:0.134732 11:-0.278874 12:-0.0672378 13:-0.0194236 14:-0.840961 15:0.13001 16:0.113127 17:0.164017 18:0.00082485 19:-0.198374 20:-0.418665 21:-0.410472 22:-0.162771 23:-0.0369487 24:0.102979 25:0.190129 26:0.22742 27:0.00353625 28:-0.348798 29:-0.580275 30:0.0329204 31:0.00814211 32:0.113565 33:0.486116 34:0.194137 35:0.266399 36:-0.107764 37:0.0501863 38:-0.0941198 39:-0.0168436 
0 0 0 0.08888639935078961 0 1:0.472944 2:0.0950086 3:0.201544 4:0.179246 5:0.183901 6:-0.223465 7:-0.129638 8:-0.216261 9:-0.153764 10:0.0686873 11:-0.424231 12:-0.0727565 13:0.085432 14:-0.812516 15:-0.022046 16:-0.436224 17:0.00424395 18:0.143286 19:-0.164733 20:0.0882601 21:0.156293 22:0.44208 23:-0.085318 24:-0.208032 25:0.355341 26:0.0235315 27:0.0137037 28:0.132107 29:-0.133847 30:-0.229545 31:-0.0586063 32:0.0034941 33:-0.166528 34:0.199611 35:0.385929 36:0.245392 37:0.268952 38:0.573783 39:-0.176951 
0 0.4191867771151211 0 0.1984699783857473 0 1:0.475687 2:0.131657 3:0.213841 4:0.183114 5:0.20114 6:-0.231141 7:-0.0538359 8:-0.1978 9:-0.102429 10:0.0965497 11:-0.397647 12:-0.106078 13:-0.0360131 14:-0.800813 15:0.0688272 16:-0.436192 17:-0.0481234 18:0.182086 19:-0.273473 20:-0.01989 21:0.24233 22:0.651787 23:0.206834 24:0.028988 25:0.66809 26:0.0779231 27:0.00865253 28:0.0660052 29:0.0162062 30:-0.201844 31:-0.191684 32:0.0891547 33:-0.195525 34:0.1646 35:0.195841 36:0.15472 37:0.368902 38:0.332501 39:-0.0733168 
0 0.102317100610368 0 0 0.5720618201864844 1:0.536184 2:0.292176 3:-0.226454 4:0.163378 5:0.189354 6:-0.56801 7:-0.291596 8:-0.137938 9:0.189855 10:0.216583 11:-0.35933 12:0.384142 13:0.00627087 14:-0.798304 15:0.0740072 16:-0.376826 17:-0.187014 18:0.0534021 19:-0.102119 20:-0.0192301 21:0.435434 22:0.589185 23:0.187265 24:0.443712 25:0.655125 26:0.145289 27:-0.0146823 28:-0.0869661 29:0.311255 30:-0.0950146 31:-0.308048 32:0.261012 33:-0.0277431 34:-0.00743328 35:-0.116374 36:-0.120347 37:0.243099 38:-0.154202 39:-0.0779887 
0.06399181828515083 0.1628818280946022 2.122615770759536 0 0.5352142939412812 1:0.558212 2:0.29725 3:-0.222559 4:0.13489 5:0.0962484 6:-0.408773 7:-0.215064 8:0.173362 9:0.367332 10:0.215638 11:-0.0327208 12:0.386525 13:0.0794055 14:-0.833539 15:-0.115639 16:-0.0451299 17:-0.111441 18:-0.26127 19:0.0968121 20:0.119192 21:0.217643 22:0.183789 23:-0.29839 24:0.171663 25:0.131425 26:0.0732708 27:-0.0390729 28:-0.156276 29:0.410799 30:0.153798 31:-0.132637 32:0.163722 33:0.122738 34:-0.435859 35:-0.251291 36:-0.22996 37:-0.221712 38:-0.188198 39:-0.135099 
0 0.7294550369295429 0 0 0 1:0.577384 2:0.315642 3:-0.24309 4:0.196363 5:-0.0985936 6:-0.674073 7:-0.297298 8:-0.029535 9:0.301498 10:-0.00294749 11:-0.177012 12:0.553016 13:0.00551957 14:-0.867335 15:-0.134976 16:0.103037 17:0.0413176 18:-0.085556 19:0.0108436 20:0.245178 21:-0.131892 22:0.0813252 23:-0.232354 24:-0.0604053 25:0.290066 26:0.153818 27:-0.0356617 28:-0.0897088 29:0.186893 30:0.0928996 31:0.205574 32:0.262909 33:0.212967 34:-0.243528 35:0.0278264 36:0.220496 37:0.0431628 38:-0.0828773 39:-0.0325726 
0 0 0 0.02963070672484266 0.4926921270228443 1:0.5262 2:0.206611 3:0.13004 4:0.28416 5:-0.139732 6:-0.431871 7:0.15698 8:-0.0016296 9:0.205373 10:-0.12349 11:-0.093698 12:0.290021 13:-0.0287823 14:-0.931059 15:-0.148325 16:0.213843 17:-0.333718 18:0.292859 19:0.524786 20:0.109866 21:0.39435 22:-0.0922152 23:-0.365669 24:0.20994 25:-0.361864 26:-0.167983 27:-0.00849655 28:0.133827 29:-0.101103 30:-0.335055 31:0.361353 32:0.099149 33:-0.468562 34:0.284086 35:-0.071777 36:-0.0355036 37:0.0740615 38:0.260228 39:-0.150705 
0 0 0 0.1719517700458463 0.3140402843237576 1:0.503368 2:0.189435 3:0.176387 4:0.240698 5:-0.129454 6:-0.426982 7:0.114424 8:-0.0426935 9:0.141126 10:-0.21797 11:-0.064631 12:0.00415393 13:-0.212502 14:-0.92791 15:-0.0661668 16:0.155825 17:-0.511915 18:0.556125 19:0.53295 20:-0.163078 21:0.65572 22:-0.125997 23:-0.352199 24:0.237465 25:-0.205078 26:-0.16255 27:0.0112302 28:0.12901 29:-0.202877 30:-0.205117 31:0.361257 32:0.0361364 33:-0.270372 34:0.144591 35:-0.00212293 36:0.205205 37:-0.00384942 38:0.589376 39:0.116353 
0 0.2301335828299665 0.2332933681513714 0 0 1:0.484789 2:0.217051 3:0.192052 4:0.141774 5:0.0757804 6:-0.306777 7:-0.00233703 8:0.177053 9:0.0544257 10:-0.350672 11:0.0445758 12:0.0494581 13:-0.234208 14:-0.904671 15:-0.0203629 16:0.00188838 17:-0.554521 18:0.74578 19:0.417166 20:-0.201972 21:0.584197 22:-0.182291 23:-0.270455 24:0.142612 25:0.112793 26:0.0248392 27:0.023028 28:0.0386794 29:-0.221281 30:0.016361 31:0.0681236 32:-0.105355 33:0.00626671 34:-0.21461 35:0.0494566 36:0.341054 37:-0.174827 38:0.475979 39:0.197104 
0.2714729775299375 0 0.2942636493267437 0 0.7187900298612367 1:0.479254 2:0.287979 3:0.194252 4:-0.0147526 5:0.309839 6:-0.219404 7:-0.214797 8:0.456088 9:-0.0236446 10:-0.394415 11:0.0655591 12:0.169207 13:-0.214558 14:-0.882459 15:-0.00644467 16:-0.0501754 17:-0.477962 18:0.733739 19:0.367023 20:-0.021695 21:0.538041 22:-0.113632 23:0.00810296 24:0.0246646 25:0.328697 26:0.21489 27:0.0185751 28:-0.0890603 29:-0.124858 30:0.248102 31:-0.295969 32:-0.137362 33:0.18772 34:-0.541997 35:0.0642179 36:0.286287 37:-0.208106 38:0.136562 39:0.136661 
0 0.7092080468751233 1.438073344163747 0 0.01232142450375191 1:0.48515 2:0.3157 3:0.132798 4:-0.0389962 5:0.453939 6:-0.248759 7:-0.026486 8:0.441262 9:-0.0946445 10:-0.212067 11:-0.013848 12:0.218528 13:-0.121426 14:-0.874264 15:-0.174306 16:-0.0443903 17:-0.161286 18:0.15998 19:0.142374 20:0.158036 21:-0.113635 22:-0.143559 23:-0.0192773 24:-0.196867 25:-0.0699118 26:0.213886 27:-0.0114351 28:-0.147185 29:0.145727 30:0.230947 31:-0.472753 32:0.0375686 33:-0.0229359 34:-0.398792 35:0.0732629 36:-0.0121439 37:0.0768343 38:-0.183091 39:-0.174426 
0 0.07334429750700874 0 0 0 1:0.481866 2:0.268411 3:0.10187 4:-0.044945 5:0.391639 6:-0.3481 7:-0.0826615 8:0.275725 9:-0.251264 10:-0.348958 11:-0.143557 12:0.110412 13:-0.104419 14:-0.883312 15:-0.203985 16:0.0506279 17:-0.100297 18:0.0970605 19:0.229835 20:0.0784499 21:-0.0653097 22:-0.0568148 23:-0.0777606 24:-0.0532757 25:-0.0456733 26:0.219175 27:-0.0182464 28:-0.063907 29:0.1852 30:0.103047 31:-0.300361 32:0.191076 33:-0.0449963 34:-0.153217 35:0.122259 36:0.0974463 37:0.190404 38:-0.0197262 39:-0.217015 
0 0.3312650578013075 0 0 0 1:0.430961 2:-0.0137663 3:0.426851 4:0.0334908 5:0.47291 6:0.132234 7:0.195621 8:0.26199 9:-0.0118283 10:-0.0591709 11:-0.366918 12:-0.123736 13:-0.190324 14:-0.886576 15:-0.389387 16:-0.144786 17:-0.102037 18:0.355847 19:0.413915 20:0.450988 21:0.342355 22:0.383739 23:0.250983 24:-0.244658 25:-0.0221637 26:0.105066 27:-0.000792677 28:0.0764248 29:-0.282669 30:-0.254425 31:-0.307761 32:-0.0471883 33:0.0156057 34:0.0240954 35:0.0232339 36:0.0967659 37:0.406133 38:0.223509 39:0.0620102 
0 0 0.3752668991896463 0 0 1:0.421176 2:-0.142041 3:0.171204 4:-0.104972 5:0.255398 6:0.126158 7:0.429836 8:0.307509 9:0.127539 10:0.206048 11:-0.137609 12:-0.182805 13:0.0467826 14:-0.869694 15:-0.178617 16:-0.0667416 17:-0.302193 18:-0.0475089 19:0.462609 20:0.417943 21:0.436013 22:0.550351 23:0.384673 24:0.597463 25:0.655381 26:0.564898 27:0.00272115 28:0.122707 29:0.310658 30:0.265124 31:0.214972 32:0.159225 33:-0.195505 34:-0.0617396 35:-0.0147741 36:-0.0225776 37:0.0439978 38:0.539616 39:-0.0770463 
0 0 0.1885378378662095 0 0.552081670153062 1:0.430628 2:-0.147145 3:0.279842 4:-0.0432796 5:0.374955 6:0.287064 7:0.603479 8:0.573652 9:0.402543 10:0.371602 11:0.0955626 12:0.45871 13:0.471538 14:-0.866154 15:-0.110562 16:0.101291 17:0.0487308 18:0.417211 19:0.430948 20:0.206695 21:0.248334 22:0.2066 23:0.121761 24:0.0258752 25:0.547383 26:0.287855 27:-0.00824234 28:0.0280148 29:0.0862325 30:0.100634 31:0.0307258 32:-0.0844528 33:-0.190476 34:-0.300231 35:-0.203363 36:-0.100357 37:-0.110668 38:-0.666479 39:-0.70686 
0 0 0.5481722766052919 0 0 1:0.424368 2:-0.0891228 3:0.334447 4:0.02103 5:0.523782 6:0.353213 7:0.535278 8:0.497146 9:0.286863 10:0.319189 11:-0.114087 12:0.247286 13:0.167089 14:-0.870645 15:-0.118018 16:0.0494737 17:-0.105862 18:0.10632 19:0.203709 20:0.18724 21:0.0909431 22:0.0921208 23:0.156822 24:0.335182 25:-0.343026 26:-0.388393 27:-0.00756923 28:-0.0747779 29:-0.0406007 30:-0.188103 31:-0.410678 32:-0.0758648 33:-0.0157109 34:-0.243406 35:0.0296029 36:0.00583249 37:0.131018 38:-0.404313 39:-0.333602 
0 0 0.1952165857576546 0 0.5723380857865532 1:0.43164 2:-0.138768 3:0.389634 4:0.0433774 5:0.407684 6:0.315793 7:0.652194 8:0.52051 9:0.298988 10:0.464498 11:0.318192 12:0.0441523 13:-0.14971 14:-0.867235 15:-0.201412 16:0.00141416 17:-0.227847 18:-0.176945 19:0.125969 20:0.20928 21:-0.057474 22:0.12485 23:0.0648419 24:0.167644 25:-0.107911 26:-9.53458e-06 27:-0.00846658 28:-0.0436575 29:-0.112424 30:-0.101875 31:-0.102855 32:0.0445043 33:-0.244148 34:-0.161145 35:0.07827 36:-0.151359 37:-0.26592 38:0.519013 39:0.390568 
0 0 0 6.864231638701807 0 1:0.426849 2:-0.216026 3:0.0456601 4:-0.213775 5:0.310859 6:0.143005 7:0.240274 8:0.234307 9:0.238202 10:0.407397 11:0.0439749 12:0.229589 13:0.123889 14:-0.874145 15:-0.158484 16:-0.0242767 17:-0.10314 18:0.101356 19:0.246384 20:0.282716 21:0.241687 22:0.114072 23:-0.0727333 24:-0.0326141 25:-0.0646469 26:0.163463 27:-0.00617578 28:0.00937182 29:0.0376639 30:-0.0127297 31:-0.0664708 32:0.126648 33:-0.0512026 34:-0.102078 35:0.0606228 36:-0.0998449 37:0.0187992 38:-0.0623407 39:-0.246651 
0 0 0 1.434267818258476 0 1:0.425096 2:-0.227949 3:0.0702796 4:-0.185662 5:0.290421 6:0.251114 7:0.408971 8:0.436976 9:0.341002 10:0.197056 11:-0.0463697 12:-0.115792 13:-0.0288878 14:-0.873875 15:-0.103995 16:0.0557372 17:-0.130459 18:0.0358397 19:0.200694 20:0.146857 21:0.0347521 22:0.119437 23:-0.0559497 24:-0.0795606 25:-0.0553985 26:0.143569 27:-0.00600514 28:-0.0124261 29:-0.0511124 30:-0.0749479 31:-0.14983 32:-0.118174 33:-0.153348 34:-0.293963 35:-0.109244 36:0.200285 37:-0.0202251 38:0.289482 39:-0.0171768 
0 3.905541495466079 0 0 0 1:0.41971 2:-0.222634 3:0.0681307 4:-0.199172 5:0.193401 6:0.14589 7:0.415136 8:0.242298 9:0.179193 10:0.224004 11:-0.0527353 12:0.00974009 13:0.176322 14:-0.870105 15:-0.106049 16:-0.0760418 17:-0.224242 18:-0.116411 19:-0.0449984 20:0.0371482 21:-0.163736 22:-0.136789 23:-0.0536286 24:-0.133422 25:0.101033 26:0.083328 27:-0.00145459 28:-0.00188863 29:0.0341072 30:0.0484422 31:0.0725629 32:0.0913531 33:-0.0492385 34:0.0810446 35:0.199099 36:0.0387815 37:0.0906868 38:0.187442 39:-0.28835 
0 1.95253307571605 0 0 0 1:0.423478 2:-0.212429 3:-0.0131445 4:-0.257287 5:0.102564 6:0.0492087 7:0.354784 8:0.157592 9:0.0495869 10:0.225061 11:-0.206292 12:-0.0900402 13:-0.00230087 14:-0.864826 15:-0.108328 16:-0.046456 17:-0.176277 18:0.0328899 19:0.0576982 20:0.123619 21:0.120113 22:0.145745 23:-0.106589 24:-0.0816086 25:0.118483 26:-0.0539414 27:-0.00308206 28:0.00768692 29:0.160633 30:0.140147 31:0.241912 32:0.267879 33:-0.0217247 34:0.167475 35:0.321873 36:0.0302797 37:0.205723 38:0.239853 39:-0.200582 
0 3.37096583282933 0 1.804058699888896 0 1:0.42745 2:-0.182286 3:0.0892103 4:-0.189911 5:0.217255 6:0.104863 7:0.449768 8:0.421475 9:0.357105 10:0.234365 11:-0.0699493 12:0.0625276 13:-0.0131737 14:-0.865916 15:-0.093445 16:0.114038 17:-0.0219281 18:0.370145 19:0.312609 20:0.109899 21:0.195081 22:0.303527 23:-0.0192412 24:0.165715 25:0.338018 26:0.0840058 27:-0.0133013 28:-0.0768375 29:-0.02703 30:-0.0461412 31:-0.0019953 32:0.165127 33:-0.296967 34:-0.348455 35:-0.193661 36:0.0165318 37:0.108332 38:0.151468 39:0.140797 
1.141077261242377 0 1.810909888890357 0 0.7758093426005777 1:0.428562 2:-0.163875 3:0.122875 4:-0.1783 5:0.322707 6:0.15032 7:0.30126 8:0.229582 9:0.186025 10:0.197747 11:-0.0165599 12:0.213387 13:-0.0121523 14:-0.878132 15:-0.198612 16:-0.0911536 17:-0.218785 18:0.0929772 19:0.184211 20:-0.28281 21:-0.290215 22:-0.228689 23:-0.115951 24:0.0521619 25:0.200482 26:0.304944 27:-0.0125008 28:-0.114305 29:-0.199034 30:-0.182327 31:-0.395725 32:0.0563851 33:0.0965992 34:-0.146486 35:-0.159756 36:0.0429041 37:-0.0491347 38:-0.188227 39:-0.0209402 
0.05747780409434077 0 0.6777903260586547 0 0.2630790512464812 1:0.422181 2:-0.217642 3:0.0323274 4:-0.239432 5:0.234192 6:0.0578324 7:-0.0552271 8:0.0533069 9:-0.0182233 10:0.122702 11:-0.0453987 12:0.19251 13:0.099273 14:-0.881803 15:-0.236839 16:-0.172106 17:-0.302045 18:-0.0744938 19:0.267564 20:0.0516207 21:-0.105708 22:-0.158351 23:-0.0853119 24:0.0239874 25:0.12208 26:0.297118 27:-0.00561395 28:-0.0137028 29:-0.0255452 30:-0.0648233 31:-0.329066 32:0.101147 33:0.449868 34:0.173536 35:0.10326 36:0.183023 37:0.0185973 38:-0.202582 39:-0.173988 
0 0 0 0 0.1117478390021763 1:0.42007 2:-0.265916 3:0.0158619 4:-0.226388 5:0.216062 6:0.0939266 7:0.0751047 8:0.0364666 9:0.0337634 10:0.173479 11:-0.0614441 12:0.139094 13:0.154745 14:-0.876823 15:-0.232408 16:-0.158917 17:-0.282873 18:-0.223567 19:0.207958 20:0.28978 21:0.0594395 22:-0.0878057 23:-0.0302904 24:-0.0322074 25:-0.00795551 26:0.21889 27:-0.0001022 28:0.0831714 29:0.133648 30:0.0312146 31:-0.171088 32:0.101773 33:0.389552 34:0.284321 35:0.265211 36:0.227032 37:0.0555295 38:-0.11042 39:-0.251394 
0 0 0.2089366075429129 0 0 1:0.417355 2:-0.28815 3:-0.0565908 4:-0.291628 5:0.10679 6:0.188448 7:0.360951 8:0.148818 9:0.0294562 10:0.163915 11:-0.0851767 12:0.122298 13:0.0866373 14:-0.869431 15:-0.127247 16:-0.043136 17:-0.227384 18:-0.194506 19:0.234753 20:0.593762 21:0.270569 22:0.0306767 23:0.148494 24:0.0576274 25:-0.0472249 26:0.131316 27:0.00035898 28:0.102908 29:0.237633 30:0.155872 31:0.0820697 32:0.0418436 33:-0.0265637 34:0.107172 35:0.286413 36:0.181174 37:0.111341 38:0.0450103 39:-0.178735 
0.2965718916699983 0 0.2805162092186968 0 0.7438571181055964 1:0.421511 2:-0.276707 3:-0.0855296 4:-0.311052 5:-0.0158527 6:0.0855847 7:0.320374 8:0.136123 9:-0.140095 10:0.154617 11:-0.0347899 12:0.156753 13:0.133315 14:-0.865625 15:-0.0756856 16:0.0205671 17:-0.19664 18:-0.13006 19:0.212589 20:0.373521 21:0.278401 22:0.130469 23:0.148213 24:0.0739631 25:-0.0177146 26:0.130397 27:-0.00461575 28:0.0536826 29:0.220775 30:0.208496 31:0.303426 32:0.094412 33:-0.312165 34:-0.040344 35:0.332207 36:0.0818463 37:0.0961683 38:0.162954 39:-0.105243 
0 1.302506881895875 0 0 0 1:0.42533 2:-0.280751 3:-0.0220595 4:-0.263606 5:0.141756 6:0.12272 7:0.267547 8:0.323682 9:0.0151471 10:0.0453547 11:-0.0594601 12:0.0275239 13:0.252098 14:-0.867634 15:-0.10523 16:-0.0462126 17:-0.214138 18:0.166654 19:0.0973655 20:-0.032508 21:0.0965866 22:-0.142099 23:-0.305388 24:0.0692254 25:0.276774 26:0.0809311 27:-0.00993044 28:0.0367421 29:0.0950343 30:0.0328111 31:-0.0171853 32:0.0882172 33:0.00113295 34:-0.0904697 35:0.187768 36:0.395463 37:0.0808691 38:-0.0265673 39:-0.391682 
0 0.6189473228426619 0 0 0 1:0.424973 2:-0.282085 3:-0.0152502 4:-0.273216 5:0.172412 6:0.105555 7:0.316665 8:0.321633 9:-0.025749 10:-0.0122334 11:-0.0189088 12:0.186994 13:0.266597 14:-0.872034 15:-0.127434 16:-0.0670506 17:-0.248938 18:0.108071 19:0.114516 20:0.0831329 21:0.0584838 22:-0.0130175 23:0.0200346 24:0.00940566 25:0.0262388 26:-0.176528 27:-0.0100747 28:0.0212026 29:0.127624 30:0.096127 31:-0.0533988 32:0.160557 33:0.0722547 34:-0.0610473 35:0.279984 36:0.508942 37:0.0683838 38:-0.173284 39:-0.327427 
0 0.2414929381264447 0 3.311879286612931 0 1:0.420871 2:-0.238829 3:0.0113526 4:-0.275762 5:0.15091 6:0.0680969 7:0.376711 8:0.399353 9:-0.0328835 10:0.243731 11:0.133423 12:0.0316977 13:0.0936736 14:-0.870687 15:-0.112035 16:0.0513077 17:-0.0183082 18:0.213322 19:0.345081 20:0.259908 21:0.161639 22:0.250272 23:0.142125 24:0.0989716 25:0.243099 26:0.22284 27:-0.00377354 28:-0.0326906 29:0.0565553 30:0.0527081 31:0.0030315 32:0.179458 33:-0.155313 34:-0.0969525 35:0.260964 36:-0.0600396 37:-0.15464 38:0.213501 39:0.109433 
0 0 0 3.705172372290066 0 1:0.424744 2:-0.282419 3:0.0340271 4:-0.238146 5:0.178741 6:0.141061 7:0.2851 8:0.433393 9:0.37147 10:0.346257 11:0.0318972 12:0.128321 13:0.0737674 14:-0.871469 15:-0.0825897 16:-0.0100243 17:-0.0966974 18:0.179505 19:0.236457 20:0.0856181 21:0.0324897 22:0.186814 23:0.0889132 24:-0.230712 25:0.0967886 26:0.240937 27:-0.00926643 28:-0.0295145 29:-0.0593427 30:-0.0130297 31:-0.00150067 32:0.0457472 33:0.058814 34:-0.128683 35:-0.188871 36:-0.134182 37:-0.0508027 38:-0.0307689 39:-0.105054 
0.4970823278209144 0 0.6088371587457194 0 0 1:0.422636 2:-0.254941 3:0.095011 4:-0.205766 5:0.100559 6:0.038372 7:0.113293 8:0.148504 9:-0.0389604 10:-0.0234736 11:-0.199608 12:-0.208993 13:0.0216455 14:-0.873315 15:-0.173072 16:-0.0212982 17:-0.0836147 18:0.0891009 19:0.22237 20:0.20569 21:0.0343693 22:-0.0554639 23:-0.17023 24:-0.410642 25:-0.0543235 26:0.161668 27:-0.00284854 28:0.0250489 29:0.019909 30:-0.0093897 31:0.126563 32:0.101218 33:0.288096 34:0.158087 35:0.170605 36:0.562431 37:0.187113 38:0.429719 39:0.231899 
0.1251155973806542 0 1.549778057601179 0 0 1:0.422146 2:-0.274626 3:0.069875 4:-0.182324 5:0.144336 6:0.122951 7:0.229547 8:0.143157 9:-0.0806023 10:0.0191653 11:-0.29803 12:-0.0431706 13:0.159901 14:-0.869466 15:-0.145133 16:-0.0106998 17:-0.128576 18:0.213712 19:0.284581 20:0.427374 21:0.238534 22:0.0867019 23:0.180918 24:-0.0694541 25:0.179062 26:0.283181 27:-0.0027023 28:0.0401305 29:0.0138944 30:-0.0772325 31:0.029358 32:0.0488592 33:0.142397 34:0.151644 35:0.261536 36:0.496663 37:0.490008 38:0.393544 39:0.0453022 
0 1.20350117567876 0 0 0 1:0.422088 2:-0.361916 3:0.0046682 4:-0.215429 5:0.146789 6:0.111236 7:0.341883 8:0.335719 9:0.125289 10:0.152544 11:-0.355886 12:-0.101762 13:0.131604 14:-0.868752 15:-0.100634 16:-0.0532576 17:-0.146005 18:0.264611 19:0.211086 20:0.439994 21:0.349372 22:0.230768 23:0.411207 24:0.308568 25:0.335537 26:0.310336 27:-0.00463821 28:0.0285475 29:0.00826186 30:-0.0721077 31:-0.121853 32:-0.00567083 33:-0.150147 34:-0.039829 35:0.19114 36:0.110271 37:0.493186 38:0.228324 39:-0.103767 
0 1.672078119018142 0 0 0 1:0.421196 2:-0.264881 3:0.0244714 4:-0.252677 5:0.0942178 6:0.00898066 7:0.335844 8:0.257151 9:0.177494 10:0.230562 11:-0.0878543 12:0.110134 13:0.170962 14:-0.873025 15:-0.0519312 16:0.0224131 17:-0.112875 18:0.288704 19:0.209383 20:0.147963 21:0.161829 22:0.212886 23:0.00988532 24:-0.152433 25:0.112305 26:0.247767 27:-0.00788517 28:0.0608972 29:0.143769 30:0.128672 31:0.0862586 32:0.28696 33:-0.127888 34:-0.0150042 35:-0.055458 36:-0.0905813 37:0.220038 38:0.0359497 39:0.00810975 
0.2029776084472044 1.081374746155351 0.4798493651444762 0.9692384450705707 0 1:0.421812 2:-0.220518 3:0.0509055 4:-0.200933 5:0.177246 6:0.0879887 7:0.318053 8:0.239833 9:0.147582 10:0.124903 11:0.0987547 12:0.359467 13:0.512282 14:-0.855758 15:0.139653 16:0.192524 17:0.0340617 18:0.071402 19:0.230177 20:-0.245694 21:-0.30393 22:-0.351161 23:-0.230712 24:-0.107768 25:-0.264273 26:-0.023573 27:0.0196226 28:0.305356 29:0.081563 30:0.142865 31:-0.12752 32:-0.265663 33:-0.474059 34:-0.359264 35:-0.066214 36:0.0142151 37:-0.301998 38:-0.471474 39:-0.617756 
0.2416864748028483 0.9753169001345652 0.1223871110944195 0.4863607824905175 0.07236449183890072 1:0.421814 2:-0.0722415 3:0.224445 4:-0.118628 5:0.247649 6:0.247258 7:0.361425 8:0.163176 9:-0.0733285 10:0.119228 11:-0.0884254 12:0.0082882 13:0.121972 14:-0.837501 15:0.30414 16:0.240148 17:0.118935 18:0.0989324 19:-0.0298562 20:-0.357049 21:-0.397934 22:-0.401598 23:-0.138721 24:-0.326445 25:-0.433978 26:-0.221753 27:0.03188 28:0.175265 29:-0.29031 30:0.0211075 31:-0.106178 32:-0.432403 33:-0.484393 34:-0.0637134 35:0.430876 36:0.0658461 37:-0.158619 38:0.0288266 39:-0.323099 
0.5870309729325972 0.5029996290593477 0.5292836607884539 0.4630311630264873 0.4105143423107956 1:0.44086 2:0.168775 3:0.357074 4:-0.00503794 5:0.248848 6:0.00971709 7:-0.0624146 8:-0.0777196 9:-0.245591 10:0.061438 11:-0.211172 12:-0.0825666 13:0.118705 14:-0.81447 15:0.355661 16:0.0593859 17:0.112441 18:0.139501 19:-0.29957 20:-0.594621 21:-0.242583 22:0.0631142 23:-0.191949 24:-0.542278 25:-0.443819 26:-0.267628 27:0.0326451 28:-0.065961 29:-0.600953 30:-0.107014 31:-0.101511 32:-0.210505 33:-0.168398 34:0.28709 35:0.812226 36:0.162126 37:0.183592 38:0.586672 39:-0.0910206 
0.08616602420104663 0.3294313403101813 0.4527883993140042 0.247462710596034 0.3688596103382911 1:0.460583 2:0.246985 3:0.364245 4:0.0251983 5:0.252581 6:-0.179729 7:-0.0820538 8:-0.108879 9:-0.351537 10:0.0423426 11:-0.244389 12:-0.134846 13:0.0768424 14:-0.782873 15:0.225757 16:-0.339355 17:-0.0276121 18:0.0237732 19:-0.494072 20:-0.682533 21:-0.0201801 22:0.501636 23:-0.161083 24:-0.168686 25:0.0898816 26:-0.0779337 27:0.0210493 28:-0.24727 29:-0.627101 30:-0.181207 31:-0.188348 32:0.0935206 33:0.0870229 34:0.379276 35:0.778307 36:0.197848 37:0.376728 38:0.877181 39:0.0206187 
0.4853793386421816 0.7560845190462574 0.5138516947367835 0.6125487492897064 0.7850059610563659 1:0.492631 2:0.307502 3:0.0930545 4:0.00329132 5:0.208037 6:-0.289658 7:-0.480723 8:-0.0787882 9:0.210156 10:-0.037556 11:-0.393234 12:-0.195935 13:0.0216727 14:-0.773479 15:0.0822243 16:-0.527522 17:-0.0937341 18:-0.0245173 19:-0.219699 20:-0.360928 21:0.269773 22:0.840207 23:0.0254578 24:0.168364 25:0.440639 26:-0.04513 27:-0.0027 28:-0.31323 29:-0.251868 30:-0.138088 31:-0.23439 32:0.332881 33:0.408089 34:0.222535 35:0.222787 36:0.193938 37:0.351858 38:0.699155 39:-0.0158402 
0 0 0.08333401054483282 0 0.2713810156559717 1:0.53664 2:0.361418 3:-0.198028 4:-0.000764659 5:0.16249 6:-0.420959 7:-0.573963 8:0.0101998 9:0.278218 10:0.00188237 11:-0.17782 12:0.0933737 13:-0.0883439 14:-0.780591 15:0.0107051 16:-0.518411 17:-0.118893 18:-0.1392 19:-0.0761598 20:-0.200067 21:0.302354 22:0.779095 23:0.0724578 24:0.150405 25:0.619771 26:-0.0683828 27:-0.0311362 28:-0.262117 29:0.233031 30:-0.00784783 31:-0.1781 32:0.398408 33:0.479767 34:-0.0254946 35:-0.237526 36:0.0326989 37:0.0332982 38:0.122336 39:-0.0760766 
0.5494351570650375 0 0 0.354489095809857 0.06139005042799012 1:0.558559 2:0.410604 3:-0.230811 4:0.057214 5:0.130403 6:-0.367688 7:-0.50728 8:0.101834 9:0.525396 10:0.120659 11:-0.0734389 12:0.262446 13:-0.0135507 14:-0.80413 15:-0.0883064 16:-0.29729 17:-0.101558 18:-0.198114 19:0.0170193 20:0.131595 21:0.222957 22:0.285819 23:0.00296352 24:0.0689039 25:0.462954 26:-0.0777584 27:-0.0460372 28:-0.193199 29:0.45025 30:0.0737948 31:-0.0845654 32:0.243672 33:0.314335 34:-0.228339 35:-0.460707 36:-0.138631 37:-0.139517 38:-0.254077 39:-0.0408267 
0 0.203114331699521 0 0 0 1:0.581695 2:0.348491 3:-0.326321 4:0.0336589 5:-0.0776156 6:-0.486482 7:-0.497344 8:0.0600055 9:0.363215 10:-0.0494881 11:-0.288836 12:0.179749 13:-0.20531 14:-0.85509 15:-0.169887 16:-0.0404654 17:0.00547979 18:-0.0974217 19:0.0401585 20:0.207191 21:0.0452881 22:0.0354155 23:-0.23578 24:-0.132063 25:0.086107 26:0.0586598 27:-0.0448157 28:-0.0559616 29:0.319709 30:0.0783971 31:0.19004 32:0.196383 33:0.10605 34:-0.19737 35:-0.0196995 36:0.144429 37:0.184831 38:-0.0536083 39:0.199929 
0 0.4109135248457618 0.5481238217637904 0 0.6190175287902749 1:0.582459 2:0.366555 3:-0.334426 4:0.121772 5:-0.0925495 6:-0.534968 7:-0.487555 8:0.0516755 9:0.396973 10:-0.0965665 11:-0.215693 12:0.298123 13:-0.123452 14:-0.873752 15:-0.149331 16:0.0539027 17:0.046685 18:0.100191 19:0.130362 20:0.33658 21:0.0402202 22:0.132122 23:-0.00700871 24:0.181028 25:0.194097 26:0.279814 27:-0.0393606 28:-0.0492443 29:0.259871 30:-0.0265059 31:0.144594 32:0.232081 33:0.111224 34:-0.171764 35:-0.044234 36:0.257945 37:0.275542 38:-0.0127589 39:0.0982022 
0 0 0 0.4952120074074139 0.3585319594018962 1:0.519755 2:0.233027 3:0.137658 4:0.253357 5:-0.160253 6:-0.478624 7:-0.0503132 8:-0.0668761 9:0.158832 10:-0.053743 11:0.0281973 12:0.121604 13:0.0368336 14:-0.927714 15:-0.211908 16:0.318355 17:-0.188616 18:0.118875 19:0.284809 20:0.39859 21:0.322932 22:-0.108361 23:-0.439621 24:0.155437 25:-0.171182 26:-0.077757 27:-0.00424287 28:0.117233 29:-0.209805 30:-0.370096 31:0.379683 32:0.260832 33:-0.246825 34:0.280631 35:0.187351 36:-0.0403181 37:-0.0551927 38:0.292112 39:-0.216087 
0.01730876814648367 0 0 0.1213422273271668 0 1:0.502578 2:0.201295 3:0.204566 4:0.218137 5:-0.179435 6:-0.528202 7:0.0549241 8:0.0121904 9:0.0362799 10:-0.243161 11:0.0698137 12:0.140209 13:-0.0882941 14:-0.921545 15:-0.141514 16:0.167012 17:-0.378373 18:0.439687 19:0.480974 20:0.271357 21:0.507091 22:0.0637666 23:-0.375125 24:0.13466 25:0.0974361 26:-0.0134271 27:0.00610549 28:0.151972 29:-0.303958 30:-0.367735 31:0.447284 32:0.295284 33:-0.3219 34:0.166824 35:0.163022 36:0.290676 37:-0.0452363 38:0.292556 39:-0.0191071 
0 1.456159445029601 0 1.064690897092792 0 1:0.471712 2:0.2626 3:0.213137 4:-0.0106659 5:0.196782 6:-0.207653 7:0.0240395 8:0.306972 9:0.0802489 10:-0.284452 11:0.0926556 12:0.216971 13:-0.12432 14:-0.895816 15:-0.0281736 16:-0.0207763 17:-0.543275 18:0.722192 19:0.547526 20:-0.0108797 21:0.508949 22:-0.0225755 23:0.0761267 24:0.0367852 25:0.0512158 26:0.148259 27:0.0202059 28:-0.00849267 29:-0.16337 30:0.200141 31:-0.106591 32:-0.136609 33:-0.267764 34:-0.308189 35:0.0535777 36:0.28165 37:-0.142671 38:-0.134378 39:-0.106145 
0 0.8467807708563865 0 1.348489026388462 0.2684740463268894 1:0.469923 2:0.309341 3:0.199009 4:-0.119166 5:0.387459 6:-0.177995 7:-0.0722251 8:0.511429 9:-0.0789717 10:-0.198163 11:0.0675874 12:0.11625 13:-0.0719086 14:-0.864789 15:-0.127355 16:-0.0863255 17:-0.113873 18:0.353671 19:0.0796997 20:-0.125069 21:0.114548 22:0.0426884 23:-0.0262737 24:-0.216496 25:-0.180159 26:-0.0111328 27:0.00751865 28:-0.0901325 29:0.01781 30:0.427065 31:-0.273507 32:-0.106277 33:-0.0142247 34:-0.425516 35:0.283807 36:0.0103753 37:0.0597196 38:-0.0225002 39:-0.202077 
0 1.883497941814626 0 0 0 1:0.475002 2:0.267683 3:0.120912 4:-0.0880332 5:0.376317 6:-0.29771 7:-0.267323 8:0.371007 9:-0.115254 10:-0.271833 11:-0.0852552 12:-0.0216177 13:-0.224798 14:-0.86134 15:-0.139912 16:-0.0704994 17:0.0724258 18:0.349693 19:0.176944 20:-0.0201928 21:-0.00417115 22:0.304493 23:-0.000217886 24:-0.0662869 25:-0.0852082 26:-0.0164508 27:-0.00436485 28:-0.0551413 29:0.0948781 30:0.195694 31:-0.185246 32:0.0800665 33:0.0914276 34:-0.252343 35:0.199244 36:0.0517429 37:0.157791 38:0.103866 39:-0.108867 
0 0.02285117368165816 0 0 0 1:0.478088 2:0.273975 3:0.116548 4:0.000407924 5:0.4473 6:-0.347164 7:-0.254987 8:0.312561 9:-0.0393735 10:-0.288073 11:-0.0451434 12:-0.0278722 13:-0.215849 14:-0.863391 15:-0.138335 16:-0.0329792 17:0.048561 18:0.31067 19:0.150354 20:-0.00389388 21:-0.0765198 22:0.298387 23:0.0497916 24:0.060946 25:-0.0795715 26:0.0239683 27:-0.0132969 28:-0.0533578 29:0.138841 30:-0.0744578 31:-0.179706 32:0.175312 33:0.117014 34:-0.132721 35:-0.0567077 36:0.0720807 37:0.0615271 38:0.182808 39:-0.0268279 
0.6722133372948182 3.399104177151399 0.6103622737524538 3.392956845001629 0.1393880729700585 1:0.479413 2:0.289064 3:0.126941 4:0.0522122 5:0.552497 6:-0.229814 7:-0.227968 8:0.291954 9:0.124399 10:-0.187277 11:0.0824121 12:-0.019444 13:-0.173752 14:-0.870023 15:-0.14929 16:0.0136598 17:-0.0668314 18:0.241029 19:0.211738 20:0.106344 21:0.0208206 22:0.14061 23:0.0689748 24:0.0366353 25:-0.0241994 26:0.059109 27:-0.0189441 28:-0.0680253 29:0.155094 30:-0.194486 31:-0.265101 32:0.168885 33:0.11175 34:-0.088794 35:-0.272479 36:2.9377e-05 37:-0.10621 38:0.195107 39:0.00239414 
0 1.570298937765605 0 0.1349728800423823 0 1:0.458793 2:0.21003 3:0.267735 4:0.0252834 5:0.410383 6:-0.136094 7:-0.127101 8:0.156812 9:-0.177169 10:-0.210949 11:-0.110442 12:0.0300708 13:-0.149081 14:-0.898926 15:-0.224642 16:0.222076 17:-0.135844 18:-0.120147 19:0.605929 20:0.242853 21:-0.182263 22:0.0672931 23:0.256242 24:-0.0762015 25:0.0850285 26:0.304677 27:-0.0104699 28:-0.0621815 29:0.0371407 30:0.0249206 31:0.055671 32:0.251037 33:0.077807 34:0.110782 35:0.373841 36:0.256983 37:0.099477 38:-0.105911 39:-0.0577982 
0.06466268670789646 0 0 0 0 1:0.431884 2:0.0856654 3:0.422881 4:-0.0030761 5:0.370034 6:0.134487 7:0.0207401 8:0.132173 9:-0.142448 10:-0.0622897 11:-0.293801 12:-0.0974638 13:-0.0208468 14:-0.890184 15:-0.327928 16:-0.0252859 17:-0.144728 18:0.220671 19:0.519629 20:0.738161 21:0.497179 22:0.510016 23:0.304318 24:-0.00814045 25:-0.0598149 26:0.203175 27:0.00412882 28:-0.0646399 29:-0.249902 30:-0.066442 31:0.00170506 32:-0.065223 33:0.26158 34:0.220014 35:0.237154 36:0.249332 37:0.394261 38:0.334706 39:-0.0324677 
0 0.6778606698604769 0 0.08366108199668142 0.1551169996226729 1:0.429815 2:0.0261444 3:0.402449 4:0.0105575 5:0.361436 6:0.0879567 7:0.156423 8:0.261638 9:0.104645 10:0.0673856 11:-0.221466 12:-0.205516 13:-0.0729752 14:-0.880988 15:-0.346791 16:-0.138351 17:-0.225411 18:0.115684 19:0.398755 20:0.837091 21:0.545778 22:0.530511 23:0.505788 24:0.327167 25:0.0882682 26:0.206121 27:0.00335706 28:0.0314086 29:-0.1492 30:-0.0316016 31:-0.0488068 32:0.0250213 33:-0.00425877 34:-0.0270451 35:0.077515 36:0.181267 37:0.379929 38:0.527039 39:0.0571199 
0.1105013339064008 0 0 0 0 1:0.426937 2:-0.117944 3:0.288248 4:-0.0807816 5:0.307736 6:0.26171 7:0.686828 8:0.477779 9:0.247646 10:0.436155 11:0.0730897 12:0.0141339 13:0.12721 14:-0.873664 15:-0.212902 16:-0.118549 17:-0.158822 18:0.166751 19:0.449831 20:0.506195 21:0.345768 22:0.398815 23:0.42612 24:0.42404 25:0.514587 26:0.458732 27:0.00139378 28:0.212685 29:0.176034 30:0.184879 31:0.0950461 32:0.0961137 33:-0.515142 34:-0.334828 35:-0.179693 36:-0.247061 37:-0.164944 38:0.133277 39:-0.136454 
0.03058420076672476 0 0.2013395068649663 0 0 1:0.435993 2:-0.00169885 3:0.34887 4:0.0394984 5:0.51022 6:0.404768 7:0.668051 8:0.523254 9:0.243035 10:0.424928 11:-0.0289496 12:0.101773 13:0.229968 14:-0.866538 15:-0.0341523 16:0.044923 17:-0.199631 18:0.0872636 19:0.0469033 20:0.0661026 21:-0.042975 22:0.0486734 23:-0.00358474 24:-0.109853 25:0.0257559 26:0.245421 27:-0.0177965 28:-0.172697 29:-0.143325 30:-0.213457 31:-0.299338 32:-0.0809177 33:-0.126405 34:-0.290378 35:0.0703489 36:-0.270994 37:-0.0148391 38:-0.149056 39:-0.215407 
0 0.6538009187014463 0.9455555298050667 0.2540579678907085 0.694856274409197 1:0.435412 2:0.0312899 3:0.373479 4:-0.0191534 5:0.481333 6:0.242558 7:0.568443 8:0.52716 9:0.31112 10:0.553426 11:0.0168417 12:0.153172 13:0.323417 14:-0.879926 15:-0.129776 16:-0.0514429 17:-0.320733 18:-0.0895693 19:0.0140006 20:-0.0369445 21:-0.184561 22:0.112149 23:-0.244218 24:-0.14505 25:-0.116007 26:0.144825 27:-0.0171022 28:-0.248925 29:-0.200468 30:-0.0765841 31:-0.19027 32:0.0869586 33:-0.0888922 34:-0.149288 35:0.0634668 36:-0.371442 37:-0.0385551 38:-0.0443548 39:-0.301718 
0 1.520934218521526 0 2.662413778024709 0.5651891618883063 1:0.430742 2:0.0081232 3:0.31808 4:-0.039314 5:0.399386 6:0.236072 7:0.522486 8:0.349455 9:0.372264 10:0.426179 11:0.033997 12:0.16611 13:0.364384 14:-0.883885 15:-0.264172 16:-0.149119 17:-0.265928 18:-0.0626308 19:0.113058 20:-0.0181549 21:-0.189614 22:0.101342 23:-0.443462 24:-0.186744 25:-0.132782 26:-0.00780663 27:-0.0100409 28:-0.212515 29:-0.108879 30:0.072159 31:0.0512713 32:0.2026 33:-0.032781 34:0.0831601 35:-0.0042999 36:-0.0550902 37:0.0697014 38:0.104397 39:-0.343401 
0.1916742945405232 0 1.466773208317066 0 0 1:0.420671 2:-0.0685652 3:0.246837 4:-0.106328 5:0.263579 6:0.197243 7:0.406694 8:0.236333 9:0.271781 10:0.244767 11:-0.0795814 12:0.0119901 13:0.264172 14:-0.88086 15:-0.325724 16:-0.169332 17:-0.197779 18:0.0041316 19:0.198792 20:0.0458316 21:0.00648452 22:0.0169302 23:-0.523015 24:-0.260041 25:-0.0841498 26:-0.0921966 27:-0.00175534 28:-0.0714181 29:0.0230652 30:0.136329 31:0.186546 32:0.190784 33:0.0483831 34:0.24396 35:-0.0535262 36:0.366223 37:0.22457 38:0.368994 39:-0.148608 
0 0 0 6.798439824530943 0 1:0.424602 2:-0.219556 3:0.0701121 4:-0.255142 5:0.198543 6:0.0706494 7:0.272373 8:0.335888 9:0.160581 10:0.146268 11:-0.0593466 12:0.127699 13:0.248327 14:-0.875808 15:-0.154697 16:-0.101037 17:-0.209204 18:0.136974 19:0.233788 20:0.369188 21:0.233974 22:0.156586 23:0.0363169 24:-0.0875633 25:-0.0154219 26:0.167842 27:-0.00601358 28:-0.0852847 29:0.017775 30:0.0738068 31:-0.00331135 32:0.215171 33:-0.0358599 34:-0.0544636 35:0.123845 36:0.271777 37:0.233767 38:0.207213 39:0.0207216 
0 1.866093129103028 0 6.139942541928868 0 1:0.428788 2:-0.307411 3:0.0590823 4:-0.236339 5:0.217106 6:0.168986 7:0.289433 8:0.361677 9:0.214341 10:0.23273 11:0.0271718 12:0.263695 13:0.292369 14:-0.869385 15:-0.0983607 16:0.0074167 17:-0.0463918 18:0.134901 19:0.124802 20:0.222337 21:0.0271304 22:-0.0294338 23:-0.399349 24:-0.395819 25:-0.131376 26:-0.0205479 27:-0.0118446 28:0.052088 29:-0.00804297 30:0.00216832 31:-0.0213504 32:0.0873726 33:0.0559018 34:-0.0799157 35:0.0338816 36:-0.0199637 37:-0.128968 38:-0.116134 39:-0.0563717 
0.07572635554994644 0 0 0 0 1:0.424866 2:-0.242292 3:0.00709908 4:-0.227095 5:0.211008 6:0.0981758 7:0.201034 8:0.279049 9:0.104241 10:0.231332 11:-0.177212 12:-0.0937286 13:-0.171511 14:-0.870885 15:-0.0489475 16:0.00430765 17:-0.142524 18:0.147157 19:0.183848 20:0.188008 21:0.361654 22:0.320243 23:-0.132642 24:-0.129318 25:0.0515215 26:0.0767982 27:-0.00681943 28:-0.00901569 29:0.0659384 30:0.0152334 31:-0.154802 32:0.00188977 33:-0.0520288 34:-0.103353 35:0.241886 36:0.218081 37:0.261749 38:0.363725 39:0.456659 
0 0 0 1.886919354301493 0 1:0.426363 2:-0.231848 3:0.0957458 4:-0.0966732 5:0.388819 6:0.260312 7:0.403226 8:0.511346 9:0.328907 10:0.329453 11:0.040634 12:0.0989865 13:0.149221 14:-0.871012 15:-0.0512464 16:-0.067687 17:-0.150533 18:0.164417 19:0.096582 20:0.133929 21:0.146227 22:0.221388 23:-0.0443175 24:0.0859241 25:0.135729 26:0.247811 27:-0.0103457 28:0.0105234 29:-0.0334452 30:-0.166689 31:-0.260146 32:-0.0689576 33:-0.062276 34:-0.247588 35:0.0636144 36:-0.0808562 37:-0.129172 38:0.0222805 39:-0.0727272 
0 3.023849393355154 0 2.32397810511111 0 1:0.424729 2:-0.20626 3:0.132854 4:-0.171985 5:0.300869 6:0.211479 7:0.397903 8:0.601715 9:0.378863 10:0.386998 11:0.19693 12:0.257462 13:0.264893 14:-0.870376 15:-0.146793 16:-0.0551039 17:-0.263249 18:0.0647924 19:0.327635 20:0.117637 21:-0.124036 22:0.331245 23:0.0659761 24:0.137542 25:0.168253 26:0.011336 27:-0.00910299 28:-0.0542946 29:-0.113392 30:-0.0115454 31:-0.0850268 32:0.169476 33:-0.0186533 34:-0.306224 35:-0.0708406 36:-0.358049 37:-0.269997 38:-0.27904 39:-0.189495 
0 0.1494381580867651 0 0 0 1:0.420192 2:-0.241314 3:-0.00383911 4:-0.230665 5:0.202248 6:-0.00850816 7:0.196017 8:0.278727 9:0.302383 10:0.347281 11:0.0599927 12:0.154819 13:0.232499 14:-0.866693 15:-0.269354 16:-0.0725432 17:-0.145504 18:0.21783 19:-0.0338107 20:-0.0280148 21:0.0630914 22:0.19109 23:0.0959846 24:0.0714169 25:0.162821 26:0.0642514 27:-0.0024583 28:0.0568879 29:0.250889 30:0.191282 31:-0.0146668 32:0.101233 33:-0.0585997 34:-0.184145 35:-0.249851 36:-0.336938 37:-0.502432 38:-0.362863 39:-0.380149 
0.6164977720380298 0 0.1080746525766616 0.1053173803437389 0 1:0.424263 2:-0.346722 3:-0.0656017 4:-0.265295 5:0.198346 6:-0.0565977 7:0.149826 8:0.303031 9:0.269495 10:0.352369 11:0.000743958 12:0.148183 13:0.257525 14:-0.868376 15:-0.2521 16:-0.0132152 17:-0.127545 18:0.151166 19:0.0877696 20:0.101466 21:0.136334 22:0.0136923 23:-0.0538111 24:-0.311797 25:-0.157694 26:-0.120698 27:0.00275306 28:0.341697 29:0.416333 30:0.335328 31:-0.209763 32:0.102632 33:-0.0956379 34:-0.477787 35:-0.400218 36:-0.546173 37:-0.528282 38:-0.291034 39:-0.294622 
0.5844958310623064 0 0 0 0 1:0.422535 2:-0.305082 3:0.0186198 4:-0.216393 5:0.242616 6:0.00830313 7:0.226241 8:0.344414 9:0.306468 10:0.376824 11:-0.115361 12:0.0178185 13:0.129086 14:-0.863223 15:0.0812281 16:0.278606 17:0.112766 18:0.0945468 19:0.10057 20:-0.0541491 21:-0.170831 22:-0.24226 23:-0.563461 24:-0.587692 25:-0.189181 26:-0.031781 27:0.0187289 28:0.429812 29:0.315444 30:0.470202 31:-0.336121 32:-0.00395983 33:-0.0707599 34:-0.670718 35:-0.328905 36:-0.405633 37:-0.255873 38:0.137784 39:-0.0770467 
0.1937277155631715 0.4940882857686604 0 0.2810923342064917 0.5106467943909255 1:0.42135 2:-0.311162 3:0.0417536 4:-0.236415 5:0.160472 6:-0.0102155 7:0.220812 8:0.346255 9:0.135702 10:0.192404 11:-0.222435 12:-0.111447 13:0.00234782 14:-0.844013 15:0.267056 16:0.360342 17:0.311731 18:-0.152603 19:-0.0713431 20:-0.142088 21:-0.690369 22:-0.508069 23:-0.744702 24:-0.654814 25:-0.0418893 26:-0.0184875 27:0.0313698 28:0.243668 29:0.0703245 30:0.524404 31:-0.286754 32:-0.0870512 33:0.00296086 34:-0.585854 35:-0.0134846 36:-0.0321967 37:0.114648 38:0.442206 39:-0.00317495 
0.1981901901493543 0 0.07539628293526661 0.8280946947691763 0.1344221927533765 1:0.433922 2:0.0385357 3:0.420979 4:0.0313901 5:0.200517 6:-0.156327 7:-0.0974905 8:-0.100381 9:-0.164038 10:-0.183576 11:-0.445742 12:-0.0296463 13:0.163137 14:-0.80791 15:0.286466 16:0.210392 17:0.521773 18:-0.268042 19:-0.177246 20:0.0267209 21:-0.775443 22:-0.386078 23:-0.503921 24:-0.487803 25:0.25415 26:0.0903191 27:0.0299034 28:-0.163032 29:-0.312755 30:0.28592 31:-0.0854845 32:0.0850253 33:0.265595 34:-0.0750172 35:0.390926 36:0.463909 37:0.472124 38:0.420447 39:-0.107703 
0 0 0 0.5366967297961445 0.243038532397776 1:0.461549 2:0.0431842 3:0.348344 4:0.106241 5:-0.0977399 6:-0.299339 7:-0.070387 8:-0.535534 9:-0.426173 10:-0.178257 11:-0.521378 12:0.0385059 13:0.0613733 14:-0.789979 15:0.118251 16:0.0948629 17:0.657031 18:-0.199191 19:-0.180962 20:0.153254 21:-0.634759 22:-0.0666647 23:-0.246002 24:-0.177063 25:0.32435 26:0.0372051 27:0.010001 28:-0.358457 29:-0.356845 30:-0.0208199 31:0.169717 32:0.25253 33:0.248108 34:0.34547 35:0.499402 36:0.368785 37:0.494667 38:0.199742 39:-0.178267 
